{"learner":{"attributes":{"scikit_learn":"{\"_estimator_type\": \"regressor\"}"},"feature_names":["price_norm","delay_norm","duration","distance","sentiment_score"],"feature_types":["float","float","float","int","float"],"gradient_booster":{"model":{"cats":{"enc":[],"feature_segments":[],"sorted_idx":[]},"gbtree_model_param":{"num_parallel_tree":"1","num_trees":"200"},"iteration_indptr":[0,1,2,3,4,5,6,7,8,9,10,11,12,13,14,15,16,17,18,19,20,21,22,23,24,25,26,27,28,29,30,31,32,33,34,35,36,37,38,39,40,41,42,43,44,45,46,47,48,49,50,51,52,53,54,55,56,57,58,59,60,61,62,63,64,65,66,67,68,69,70,71,72,73,74,75,76,77,78,79,80,81,82,83,84,85,86,87,88,89,90,91,92,93,94,95,96,97,98,99,100,101,102,103,104,105,106,107,108,109,110,111,112,113,114,115,116,117,118,119,120,121,122,123,124,125,126,127,128,129,130,131,132,133,134,135,136,137,138,139,140,141,142,143,144,145,146,147,148,149,150,151,152,153,154,155,156,157,158,159,160,161,162,163,164,165,166,167,168,169,170,171,172,173,174,175,176,177,178,179,180,181,182,183,184,185,186,187,188,189,190,191,192,193,194,195,196,197,198,199,200],"tree_info":[0,0,0,0,0,0,0,0,0,0,0,0,0,0,0,0,0,0,0,0,0,0,0,0,0,0,0,0,0,0,0,0,0,0,0,0,0,0,0,0,0,0,0,0,0,0,0,0,0,0,0,0,0,0,0,0,0,0,0,0,0,0,0,0,0,0,0,0,0,0,0,0,0,0,0,0,0,0,0,0,0,0,0,0,0,0,0,0,0,0,0,0,0,0,0,0,0,0,0,0,0,0,0,0,0,0,0,0,0,0,0,0,0,0,0,0,0,0,0,0,0,0,0,0,0,0,0,0,0,0,0,0,0,0,0,0,0,0,0,0,0,0,0,0,0,0,0,0,0,0,0,0,0,0,0,0,0,0,0,0,0,0,0,0,0,0,0,0,0,0,0,0,0,0,0,0,0,0,0,0,0,0,0,0,0,0,0,0,0,0,0,0,0,0,0,0,0,0,0,0],"trees":[{"base_weights":[3.4634509E-9,-2.2864375E-2,6.444143E-2,-2.8179454E-2,5.2876092E-2,5.3172212E-2,1.8974915E-1,-1.4672411E-2,-4.905401E-2,3.4760814E-2,1.1016666E-1,3.533166E-2,1.00944825E-1,1.5801354E-1,2.5925484E-1,-3.0799557E-2,1.8155879E-3,-6.0643118E-2,-3.0710945E-2,4.9520828E-2,1.062675E-2,9.6212454E-2,1.6251448E-1,4.861477E-2,1.4244741E-2,1.12442225E-1,7.0721745E-2,1.4295909E-1,2.1764539E-1,2.3625916E-1,3.1168726E-1,-3.9065305E-2,-2.273923E-2,-6.2416545E-3,1.1996224E-2,-6.854082E-2,-5.284318E-2,-3.4197263E-2,-1.3675387E-2,3.848935E-2,6.647774E-2,4.206173E-4,2.8671984E-2,1.0875004E-1,7.121738E-2,1.429036E-1,1.8510376E-1,4.1573342E-2,8.5161135E-2,4.352473E-3,3.4056313E-2,1.0645215E-1,1.6277555E-1,6.54273E-2,1.07845195E-1,1.23891175E-1,1.6347834E-1,2.030422E-1,2.570891E-1,2.0813091E-1,2.6210758E-1,2.944837E-1,3.6100948E-1,-4.091395E-3,-1.94401E-3,-2.5982652E-3,-4.0647326E-4,-9.5450337E-4,1.4226577E-3,8.709356E-4,3.089641E-3,-7.093632E-3,-5.2846894E-3,-5.6365775E-3,-3.6954961E-3,-4.135579E-3,-2.6282445E-3,-2.127055E-3,-5.5264414E-4,2.7212573E-3,5.2384245E-3,5.506872E-3,7.820691E-3,-8.467234E-4,1.5549677E-3,1.6803568E-3,3.9068316E-3,9.781458E-3,1.2743085E-2,6.0453936E-3,9.045888E-3,1.5478556E-2,1.1888771E-2,1.9606153E-2,1.5445649E-2,3.042271E-3,5.7870247E-3,7.53813E-3,1.0398935E-2,-1.2997833E-4,3.8316164E-3,2.9173407E-3,6.6399286E-3,1.0168796E-2,1.4000638E-2,1.42773455E-2,1.8843537E-2,5.5163354E-3,8.117802E-3,9.507575E-3,1.2931793E-2,1.3525455E-2,9.768176E-3,1.7557105E-2,1.3746149E-2,1.8626561E-2,2.217873E-2,2.4003169E-2,2.8134976E-2,2.2086859E-2,1.8101804E-2,2.7477775E-2,2.360318E-2,2.568892E-2,3.1596284E-2,3.2338843E-2,3.8942043E-2],"categories":[],"categories_nodes":[],"categories_segments":[],"categories_sizes":[],"default_left":[0,0,0,0,0,0,0,0,0,0,0,0,0,0,0,0,0,0,0,0,0,0,0,0,0,0,0,0,0,0,0,0,0,0,0,0,0,0,0,0,0,0,0,0,0,0,0,0,0,0,0,0,0,0,0,0,0,0,0,0,0,0,0,0,0,0,0,0,0,0,0,0,0,0,0,0,0,0,0,0,0,0,0,0,0,0,0,0,0,0,0,0,0,0,0,0,0,0,0,0,0,0,0,0,0,0,0,0,0,0,0,0,0,0,0,0,0,0,0,0,0,0,0,0,0,0,0],"id":0,"left_children":[1,3,5,7,9,11,13,15,17,19,21,23,25,27,29,31,33,35,37,39,41,43,45,47,49,51,53,55,57,59,61,63,65,67,69,71,73,75,77,79,81,83,85,87,89,91,93,95,97,99,101,103,105,107,109,111,113,115,117,119,121,123,125,-1,-1,-1,-1,-1,-1,-1,-1,-1,-1,-1,-1,-1,-1,-1,-1,-1,-1,-1,-1,-1,-1,-1,-1,-1,-1,-1,-1,-1,-1,-1,-1,-1,-1,-1,-1,-1,-1,-1,-1,-1,-1,-1,-1,-1,-1,-1,-1,-1,-1,-1,-1,-1,-1,-1,-1,-1,-1,-1,-1,-1,-1,-1,-1],"loss_changes":[6.716569E3,1.3545123E3,1.6858081E3,8.8647705E2,2.2897778E2,9.335249E2,2.1723975E2,5.0758325E2,2.625686E2,5.9712845E1,3.870227E1,2.2337799E2,1.034812E2,6.0681152E1,3.7154053E1,6.429242E1,7.742518E1,4.6625E1,2.8402313E1,1.945465E1,1.1716278E1,1.3107452E1,4.914734E0,1.2590845E2,6.0403862E1,6.503027E1,1.612503E1,2.1107666E1,7.798767E0,1.5553467E1,7.878174E0,1.7284119E1,2.9592636E1,3.5625584E1,2.590459E1,1.4135864E1,2.131189E1,2.2491577E1,5.028345E0,9.873299E0,5.4817047E0,5.4641094E0,2.8350468E0,5.6806946E0,2.8904724E0,1.6865921E0,1.7092896E0,7.454828E1,1.4546509E1,3.946363E1,1.620839E1,3.0807129E1,1.1748657E1,1.1608704E1,2.7962723E0,8.324188E0,8.158142E0,3.088379E0,1.4549255E0,3.5119934E0,3.6297607E0,5.5568237E0,2.4702759E0,0E0,0E0,0E0,0E0,0E0,0E0,0E0,0E0,0E0,0E0,0E0,0E0,0E0,0E0,0E0,0E0,0E0,0E0,0E0,0E0,0E0,0E0,0E0,0E0,0E0,0E0,0E0,0E0,0E0,0E0,0E0,0E0,0E0,0E0,0E0,0E0,0E0,0E0,0E0,0E0,0E0,0E0,0E0,0E0,0E0,0E0,0E0,0E0,0E0,0E0,0E0,0E0,0E0,0E0,0E0,0E0,0E0,0E0,0E0,0E0,0E0,0E0,0E0,0E0],"parents":[2147483647,0,0,1,1,2,2,3,3,4,4,5,5,6,6,7,7,8,8,9,9,10,10,11,11,12,12,13,13,14,14,15,15,16,16,17,17,18,18,19,19,20,20,21,21,22,22,23,23,24,24,25,25,26,26,27,27,28,28,29,29,30,30,31,31,32,32,33,33,34,34,35,35,36,36,37,37,38,38,39,39,40,40,41,41,42,42,43,43,44,44,45,45,46,46,47,47,48,48,49,49,50,50,51,51,52,52,53,53,54,54,55,55,56,56,57,57,58,58,59,59,60,60,61,61,62,62],"right_children":[2,4,6,8,10,12,14,16,18,20,22,24,26,28,30,32,34,36,38,40,42,44,46,48,50,52,54,56,58,60,62,64,66,68,70,72,74,76,78,80,82,84,86,88,90,92,94,96,98,100,102,104,106,108,110,112,114,116,118,120,122,124,126,-1,-1,-1,-1,-1,-1,-1,-1,-1,-1,-1,-1,-1,-1,-1,-1,-1,-1,-1,-1,-1,-1,-1,-1,-1,-1,-1,-1,-1,-1,-1,-1,-1,-1,-1,-1,-1,-1,-1,-1,-1,-1,-1,-1,-1,-1,-1,-1,-1,-1,-1,-1,-1,-1,-1,-1,-1,-1,-1,-1,-1,-1,-1,-1],"split_conditions":[1.8928759E-1,1.7924528E-1,3.207547E-1,1.2465999E-1,3.427673E-1,3.3553138E-1,5.91195E-1,9.798131E-2,1.1282819E-1,1.2465999E-1,5.188679E-1,1.2465999E-1,1.2465999E-1,3.438246E-1,3.212104E-1,6.0237065E-2,1.4551559E-1,7.649986E-2,9.4339624E-2,2.4842767E-1,2.4842767E-1,1.2465999E-1,5.91195E-1,1.3836478E-1,2.678102E-1,4.4791457E-1,1.3522013E-1,4.245283E-1,4.7392693E-1,7.075472E-1,4.7392693E-1,8.176101E-2,8.490566E-2,9.1194965E-2,9.1194965E-2,8.176101E-2,8.805031E-2,1.495206E-1,1.4753833E-1,1.2581415E-1,1.2783688E-1,1.33986E-1,1.2581415E-1,4.245283E-1,4.245283E-1,1.2465999E-1,1.2465999E-1,2.504551E-1,2.2955975E-1,1.3522013E-1,1.3207547E-1,1.1949685E-1,4.7392693E-1,4.0195802E-1,4.075812E-1,1.2465999E-1,1.2465999E-1,4.245283E-1,4.654088E-1,1.2465999E-1,1.2465999E-1,7.075472E-1,7.075472E-1,-4.091395E-3,-1.94401E-3,-2.5982652E-3,-4.0647326E-4,-9.5450337E-4,1.4226577E-3,8.709356E-4,3.089641E-3,-7.093632E-3,-5.2846894E-3,-5.6365775E-3,-3.6954961E-3,-4.135579E-3,-2.6282445E-3,-2.127055E-3,-5.5264414E-4,2.7212573E-3,5.2384245E-3,5.506872E-3,7.820691E-3,-8.467234E-4,1.5549677E-3,1.6803568E-3,3.9068316E-3,9.781458E-3,1.2743085E-2,6.0453936E-3,9.045888E-3,1.5478556E-2,1.1888771E-2,1.9606153E-2,1.5445649E-2,3.042271E-3,5.7870247E-3,7.53813E-3,1.0398935E-2,-1.2997833E-4,3.8316164E-3,2.9173407E-3,6.6399286E-3,1.0168796E-2,1.4000638E-2,1.42773455E-2,1.8843537E-2,5.5163354E-3,8.117802E-3,9.507575E-3,1.2931793E-2,1.3525455E-2,9.768176E-3,1.7557105E-2,1.3746149E-2,1.8626561E-2,2.217873E-2,2.4003169E-2,2.8134976E-2,2.2086859E-2,1.8101804E-2,2.7477775E-2,2.360318E-2,2.568892E-2,3.1596284E-2,3.2338843E-2,3.8942043E-2],"split_indices":[0,1,1,4,1,0,1,0,0,4,1,4,4,0,0,0,0,0,1,1,1,4,1,1,0,0,1,1,0,1,0,1,1,1,1,1,1,0,0,0,0,0,0,1,1,4,4,0,1,1,1,1,0,0,0,4,4,1,1,4,4,1,1,0,0,0,0,0,0,0,0,0,0,0,0,0,0,0,0,0,0,0,0,0,0,0,0,0,0,0,0,0,0,0,0,0,0,0,0,0,0,0,0,0,0,0,0,0,0,0,0,0,0,0,0,0,0,0,0,0,0,0,0,0,0,0,0],"split_type":[0,0,0,0,0,0,0,0,0,0,0,0,0,0,0,0,0,0,0,0,0,0,0,0,0,0,0,0,0,0,0,0,0,0,0,0,0,0,0,0,0,0,0,0,0,0,0,0,0,0,0,0,0,0,0,0,0,0,0,0,0,0,0,0,0,0,0,0,0,0,0,0,0,0,0,0,0,0,0,0,0,0,0,0,0,0,0,0,0,0,0,0,0,0,0,0,0,0,0,0,0,0,0,0,0,0,0,0,0,0,0,0,0,0,0,0,0,0,0,0,0,0,0,0,0,0,0],"sum_hessian":[4.558508E6,3.364688E6,1.19382E6,3.144055E6,2.20633E5,1.095317E6,9.8503E4,1.908893E6,1.235162E6,1.6763E5,5.3003E4,7.97496E5,2.97821E5,6.7628E4,3.0875E4,9.65006E5,9.43887E5,7.56932E5,4.7823E5,1.04015E5,6.3615E4,4.185E4,1.1153E4,4.89284E5,3.08212E5,2.15745E5,8.2076E4,5.3999E4,1.3629E4,2.1466E4,9.409E3,4.7643E5,4.88576E5,5.26891E5,4.16996E5,3.76105E5,3.80827E5,3.96986E5,8.1244E4,6.302E4,4.0995E4,4.0634E4,2.2981E4,2.7868E4,1.3982E4,5.974E3,5.179E3,4.10244E5,7.904E4,2.05569E5,1.02643E5,1.92803E5,2.2942E4,7.1834E4,1.0242E4,2.7993E4,2.6006E4,9.951E3,3.678E3,1.0284E4,1.1182E4,6.981E3,2.428E3,4.35414E5,4.1016E4,4.16276E5,7.23E4,4.53673E5,7.3218E4,3.55222E5,6.1774E4,3.26296E5,4.9809E4,3.11714E5,6.9113E4,2.0845E5,1.88536E5,4.205E4,3.9194E4,3.4789E4,2.8231E4,2.0784E4,2.0211E4,2.5597E4,1.5037E4,1.0732E4,1.2249E4,1.7582E4,1.0286E4,8.969E3,5.013E3,3.993E3,1.981E3,3.811E3,1.368E3,2.43583E5,1.66661E5,5.2023E4,2.7017E4,1.7624E5,2.9329E4,8.9181E4,1.3462E4,1.68835E5,2.3968E4,1.2896E4,1.0046E4,4.3495E4,2.8339E4,6.426E3,3.816E3,1.9524E4,8.469E3,1.775E4,8.256E3,5.257E3,4.694E3,2.166E3,1.512E3,6.992E3,3.292E3,7.519E3,3.663E3,2.543E3,4.438E3,1.05E3,1.378E3],"tree_param":{"num_deleted":"0","num_feature":"5","num_nodes":"127","size_leaf_vector":"1"}},{"base_weights":[1.3252193E-7,-2.0169113E-2,5.921834E-2,-2.5291037E-2,4.506489E-2,4.851858E-2,1.671443E-1,-1.3118462E-2,-4.4142272E-2,2.7403802E-2,9.3916394E-2,3.2713108E-2,9.212095E-2,1.3958958E-1,2.3417251E-1,-2.6205804E-2,3.8517418E-3,-5.5553917E-2,-2.8692259E-2,4.0887725E-2,5.954822E-3,7.735421E-2,1.3361116E-1,4.45926E-2,1.4219008E-2,1.01608835E-1,6.529095E-2,1.2508158E-1,1.898573E-1,2.1441938E-1,2.8311643E-1,-3.4380954E-2,-1.8227646E-2,-2.5734405E-3,1.2901442E-2,-6.304631E-2,-4.9562152E-2,-3.6357045E-2,-2.1507952E-2,2.7495254E-2,5.1869508E-2,-7.2934963E-3,1.6628517E-2,8.8927455E-2,5.468988E-2,1.1977225E-1,1.6735677E-1,3.7710514E-2,7.215179E-2,3.118301E-3,2.9827438E-2,9.460251E-2,1.3551831E-1,6.0793817E-2,1.0185368E-1,1.08559206E-1,1.4710812E-1,1.7274725E-1,2.1884397E-1,1.8871431E-1,2.3743564E-1,2.6387998E-1,3.1828323E-1,-3.6568183E-3,-2.0447252E-3,-2.1187463E-3,-3.9403792E-4,-5.844891E-4,1.1856311E-3,9.452565E-4,2.6412022E-3,-6.5355087E-3,-5.168217E-3,-5.214802E-3,-3.3537988E-3,-3.9744442E-3,-2.3004848E-3,-2.4971075E-3,-8.858981E-4,1.8830374E-3,4.0901913E-3,4.2467993E-3,6.2547657E-3,-1.5082293E-3,4.497193E-4,8.588652E-4,2.9335225E-3,7.749124E-3,9.915886E-3,4.6477015E-3,6.935589E-3,1.30464425E-2,9.8152235E-3,1.5793523E-2,1.9987043E-2,2.8167912E-3,5.365325E-3,6.3585094E-3,9.199886E-3,-2.800016E-4,2.773646E-3,2.5266146E-3,5.562111E-3,9.0085715E-3,1.1797882E-2,1.2262126E-2,1.689911E-2,5.6304303E-3,8.563162E-3,9.10687E-3,1.4398021E-2,1.187193E-2,8.508748E-3,1.5806375E-2,1.2345581E-2,1.6024485E-2,2.008686E-2,1.993428E-2,2.4196751E-2,2.0032173E-2,1.6385766E-2,2.489868E-2,2.1366265E-2,2.2963136E-2,2.8374473E-2,2.8570428E-2,3.4109805E-2],"categories":[],"categories_nodes":[],"categories_segments":[],"categories_sizes":[],"default_left":[0,0,0,0,0,0,0,0,0,0,0,0,0,0,0,0,0,0,0,0,0,0,0,0,0,0,0,0,0,0,0,0,0,0,0,0,0,0,0,0,0,0,0,0,0,0,0,0,0,0,0,0,0,0,0,0,0,0,0,0,0,0,0,0,0,0,0,0,0,0,0,0,0,0,0,0,0,0,0,0,0,0,0,0,0,0,0,0,0,0,0,0,0,0,0,0,0,0,0,0,0,0,0,0,0,0,0,0,0,0,0,0,0,0,0,0,0,0,0,0,0,0,0,0,0,0,0],"id":1,"left_children":[1,3,5,7,9,11,13,15,17,19,21,23,25,27,29,31,33,35,37,39,41,43,45,47,49,51,53,55,57,59,61,63,65,67,69,71,73,75,77,79,81,83,85,87,89,91,93,95,97,99,101,103,105,107,109,111,113,115,117,119,121,123,125,-1,-1,-1,-1,-1,-1,-1,-1,-1,-1,-1,-1,-1,-1,-1,-1,-1,-1,-1,-1,-1,-1,-1,-1,-1,-1,-1,-1,-1,-1,-1,-1,-1,-1,-1,-1,-1,-1,-1,-1,-1,-1,-1,-1,-1,-1,-1,-1,-1,-1,-1,-1,-1,-1,-1,-1,-1,-1,-1,-1,-1,-1,-1,-1],"loss_changes":[5.4446226E3,1.1361454E3,1.3373894E3,7.234719E2,2.1357458E2,7.261465E2,1.9290112E2,4.254841E2,2.1810254E2,5.2584503E1,4.320331E1,1.6990454E2,7.135449E1,5.396582E1,2.9359741E1,7.054608E1,4.850238E1,3.193872E1,2.8938599E1,1.6417374E1,9.924452E0,1.2161163E1,9.016449E0,8.9306946E1,5.240691E1,4.9188477E1,1.2036163E1,2.0892944E1,8.184814E0,1.278479E1,5.833252E0,1.6280212E1,2.3148712E1,2.302773E1,1.6137882E1,8.29187E0,1.6380188E1,1.1499268E1,1.1882919E1,5.842434E0,6.155121E0,2.8758888E0,3.9705105E0,3.5847168E0,1.8855553E0,3.1601715E0,1.6915436E0,5.732184E1,1.5991821E1,2.5753525E1,1.4788689E1,1.8111572E1,1.5287415E1,7.2677307E0,3.6306458E0,7.819458E0,6.360718E0,3.6347961E0,2.7250366E0,2.9242249E0,3.0874634E0,3.785553E0,2.1977844E0,0E0,0E0,0E0,0E0,0E0,0E0,0E0,0E0,0E0,0E0,0E0,0E0,0E0,0E0,0E0,0E0,0E0,0E0,0E0,0E0,0E0,0E0,0E0,0E0,0E0,0E0,0E0,0E0,0E0,0E0,0E0,0E0,0E0,0E0,0E0,0E0,0E0,0E0,0E0,0E0,0E0,0E0,0E0,0E0,0E0,0E0,0E0,0E0,0E0,0E0,0E0,0E0,0E0,0E0,0E0,0E0,0E0,0E0,0E0,0E0,0E0,0E0,0E0,0E0],"parents":[2147483647,0,0,1,1,2,2,3,3,4,4,5,5,6,6,7,7,8,8,9,9,10,10,11,11,12,12,13,13,14,14,15,15,16,16,17,17,18,18,19,19,20,20,21,21,22,22,23,23,24,24,25,25,26,26,27,27,28,28,29,29,30,30,31,31,32,32,33,33,34,34,35,35,36,36,37,37,38,38,39,39,40,40,41,41,42,42,43,43,44,44,45,45,46,46,47,47,48,48,49,49,50,50,51,51,52,52,53,53,54,54,55,55,56,56,57,57,58,58,59,59,60,60,61,61,62,62],"right_children":[2,4,6,8,10,12,14,16,18,20,22,24,26,28,30,32,34,36,38,40,42,44,46,48,50,52,54,56,58,60,62,64,66,68,70,72,74,76,78,80,82,84,86,88,90,92,94,96,98,100,102,104,106,108,110,112,114,116,118,120,122,124,126,-1,-1,-1,-1,-1,-1,-1,-1,-1,-1,-1,-1,-1,-1,-1,-1,-1,-1,-1,-1,-1,-1,-1,-1,-1,-1,-1,-1,-1,-1,-1,-1,-1,-1,-1,-1,-1,-1,-1,-1,-1,-1,-1,-1,-1,-1,-1,-1,-1,-1,-1,-1,-1,-1,-1,-1,-1,-1,-1,-1,-1,-1,-1,-1],"split_conditions":[1.920385E-1,1.6981132E-1,3.018868E-1,1.2465999E-1,3.207547E-1,3.438246E-1,5.91195E-1,1.0744771E-1,1.0874226E-1,1.2465999E-1,4.654088E-1,1.2465999E-1,1.2465999E-1,3.3553138E-1,3.2780454E-1,6.4444356E-2,1.546179E-1,7.196893E-2,1.434524E-1,1.15740925E-1,1.15740925E-1,1.2465999E-1,5.91195E-1,1.163522E-1,2.6170152E-1,4.3735588E-1,4.3735588E-1,4.245283E-1,4.4791457E-1,7.075472E-1,4.3735588E-1,6.918239E-2,7.54717E-2,7.861635E-2,7.861635E-2,7.232705E-2,9.7484276E-2,8.490566E-2,8.176101E-2,2.2955975E-1,2.2955975E-1,2.2012578E-1,2.389937E-1,1.3722238E-1,3.9308175E-1,1.2465999E-1,7.075472E-1,2.5870788E-1,2.678102E-1,1.1006289E-1,1.1949685E-1,9.7484276E-2,4.7392693E-1,1.1006289E-1,4.7392693E-1,1.2465999E-1,1.2465999E-1,4.654088E-1,4.245283E-1,1.2465999E-1,1.2465999E-1,7.075472E-1,7.075472E-1,-3.6568183E-3,-2.0447252E-3,-2.1187463E-3,-3.9403792E-4,-5.844891E-4,1.1856311E-3,9.452565E-4,2.6412022E-3,-6.5355087E-3,-5.168217E-3,-5.214802E-3,-3.3537988E-3,-3.9744442E-3,-2.3004848E-3,-2.4971075E-3,-8.858981E-4,1.8830374E-3,4.0901913E-3,4.2467993E-3,6.2547657E-3,-1.5082293E-3,4.497193E-4,8.588652E-4,2.9335225E-3,7.749124E-3,9.915886E-3,4.6477015E-3,6.935589E-3,1.30464425E-2,9.8152235E-3,1.5793523E-2,1.9987043E-2,2.8167912E-3,5.365325E-3,6.3585094E-3,9.199886E-3,-2.800016E-4,2.773646E-3,2.5266146E-3,5.562111E-3,9.0085715E-3,1.1797882E-2,1.2262126E-2,1.689911E-2,5.6304303E-3,8.563162E-3,9.10687E-3,1.4398021E-2,1.187193E-2,8.508748E-3,1.5806375E-2,1.2345581E-2,1.6024485E-2,2.008686E-2,1.993428E-2,2.4196751E-2,2.0032173E-2,1.6385766E-2,2.489868E-2,2.1366265E-2,2.2963136E-2,2.8374473E-2,2.8570428E-2,3.4109805E-2],"split_indices":[0,1,1,4,1,0,1,0,0,4,1,4,4,0,0,0,0,0,0,0,0,4,1,1,0,0,0,1,0,1,0,1,1,1,1,1,1,1,1,1,1,1,1,0,1,4,1,0,0,1,1,1,0,1,0,4,4,1,1,4,4,1,1,0,0,0,0,0,0,0,0,0,0,0,0,0,0,0,0,0,0,0,0,0,0,0,0,0,0,0,0,0,0,0,0,0,0,0,0,0,0,0,0,0,0,0,0,0,0,0,0,0,0,0,0,0,0,0,0,0,0,0,0,0,0,0,0],"split_type":[0,0,0,0,0,0,0,0,0,0,0,0,0,0,0,0,0,0,0,0,0,0,0,0,0,0,0,0,0,0,0,0,0,0,0,0,0,0,0,0,0,0,0,0,0,0,0,0,0,0,0,0,0,0,0,0,0,0,0,0,0,0,0,0,0,0,0,0,0,0,0,0,0,0,0,0,0,0,0,0,0,0,0,0,0,0,0,0,0,0,0,0,0,0,0,0,0,0,0,0,0,0,0,0,0,0,0,0,0,0,0,0,0,0,0,0,0,0,0,0,0,0,0,0,0,0,0],"sum_hessian":[4.558508E6,3.40037E6,1.158138E6,3.152823E6,2.47547E5,1.053678E6,1.0446E5,1.915775E6,1.237048E6,1.81817E5,6.573E4,7.73348E5,2.8033E5,7.403E4,3.043E4,1.081628E6,8.34147E5,7.11511E5,5.25537E5,1.11636E5,7.0181E4,4.6381E4,1.9349E4,4.70881E5,3.02467E5,2.07093E5,7.3237E4,5.7452E4,1.6578E4,2.1684E4,8.746E3,5.34217E5,5.47411E5,4.87809E5,3.46338E5,3.1616E5,3.95351E5,2.54264E5,2.71273E5,5.0299E4,6.1337E4,3.1314E4,3.8867E4,3.0701E4,1.568E4,1.3725E4,5.624E3,3.76791E5,9.409E4,1.76758E5,1.25709E5,1.71634E5,3.5459E4,6.5218E4,8.019E3,3.2831E4,2.4621E4,1.0429E4,6.149E3,1.0248E4,1.1436E4,5.659E3,3.087E3,4.61735E5,7.2482E4,4.53468E5,9.3943E4,3.97655E5,9.0154E4,2.75908E5,7.043E4,2.6277E5,5.339E4,3.40415E5,5.4936E4,2.0281E5,5.1454E4,2.12965E5,5.8308E4,3.0554E4,1.9745E4,3.2621E4,2.8716E4,1.8857E4,1.2457E4,2.3806E4,1.5061E4,1.4501E4,1.62E4,1.0054E4,5.626E3,9.18E3,4.545E3,4.365E3,1.259E3,2.35709E5,1.41082E5,6.5725E4,2.8365E4,1.42501E5,3.4257E4,1.06821E5,1.8888E4,1.43845E5,2.7789E4,2.56E4,9.859E3,5.5237E4,9.981E3,6.387E3,1.632E3,2.291E4,9.921E3,1.6823E4,7.798E3,7.224E3,3.205E3,3.341E3,2.808E3,6.981E3,3.267E3,7.69E3,3.746E3,2.082E3,3.577E3,1.277E3,1.81E3],"tree_param":{"num_deleted":"0","num_feature":"5","num_nodes":"127","size_leaf_vector":"1"}},{"base_weights":[2.3358626E-7,-1.9286742E-2,5.0218705E-2,-2.4107333E-2,3.3737864E-2,4.045409E-2,1.4447074E-1,-1.3192515E-2,-4.099053E-2,1.8687097E-2,7.739979E-2,2.5333384E-2,7.846961E-2,1.1473986E-1,1.9532764E-1,-2.705645E-2,-1.2047249E-3,-5.160605E-2,-2.8773757E-2,3.1163722E-2,-9.713944E-5,6.501449E-2,1.17424265E-1,3.6085285E-2,7.692024E-3,8.9381315E-2,5.3542245E-2,9.996854E-2,1.557018E-1,1.7432712E-1,2.363874E-1,-3.4280363E-2,-2.224903E-2,-9.101332E-3,6.080605E-3,-5.8561213E-2,-4.7331393E-2,-3.565889E-2,-2.220359E-2,1.800679E-2,3.9714415E-2,-1.1996805E-2,8.593882E-3,7.5557075E-2,4.4530205E-2,1.06540486E-1,1.4769821E-1,2.995152E-2,5.761751E-2,-4.9130754E-3,1.7064257E-2,8.0932245E-2,1.1227989E-1,4.349449E-2,6.7406565E-2,1.09227434E-1,7.9077974E-2,1.3981682E-1,1.8423662E-1,1.5555239E-1,2.0847212E-1,2.1093163E-1,2.6460695E-1,-3.7088697E-3,-2.7799658E-3,-2.4430759E-3,-1.0431971E-3,-1.1855237E-3,1.672969E-4,3.4567813E-4,1.6918732E-3,-6.053109E-3,-5.0278353E-3,-5.001209E-3,-3.695219E-3,-3.8743601E-3,-2.6324582E-3,-2.5142669E-3,-1.2555574E-3,1.0279979E-3,2.8124284E-3,3.2693332E-3,4.9772128E-3,-1.7225717E-3,-6.937139E-5,1.9318353E-4,1.8998649E-3,6.5138154E-3,8.767833E-3,3.4752784E-3,5.6599653E-3,1.16271945E-2,8.66667E-3,1.5732685E-2,1.1910404E-2,1.9799904E-3,4.1676913E-3,5.0196457E-3,7.3616444E-3,-1.0012053E-3,2.1299897E-3,1.262593E-3,3.8280436E-3,7.830293E-3,1.0826061E-2,1.0495031E-2,1.5130733E-2,3.8725361E-3,6.2572598E-3,6.333153E-3,1.0534236E-2,9.725205E-3,1.2606707E-2,6.775947E-3,9.466838E-3,1.50308E-2,1.1883612E-2,1.71236E-2,2.0175956E-2,1.6617034E-2,1.33893015E-2,2.1875247E-2,1.8714665E-2,1.9624291E-2,2.4880921E-2,2.5190694E-2,3.1642158E-2],"categories":[],"categories_nodes":[],"categories_segments":[],"categories_sizes":[],"default_left":[0,0,0,0,0,0,0,0,0,0,0,0,0,0,0,0,0,0,0,0,0,0,0,0,0,0,0,0,0,0,0,0,0,0,0,0,0,0,0,0,0,0,0,0,0,0,0,0,0,0,0,0,0,0,0,0,0,0,0,0,0,0,0,0,0,0,0,0,0,0,0,0,0,0,0,0,0,0,0,0,0,0,0,0,0,0,0,0,0,0,0,0,0,0,0,0,0,0,0,0,0,0,0,0,0,0,0,0,0,0,0,0,0,0,0,0,0,0,0,0,0,0,0,0,0,0,0],"id":2,"left_children":[1,3,5,7,9,11,13,15,17,19,21,23,25,27,29,31,33,35,37,39,41,43,45,47,49,51,53,55,57,59,61,63,65,67,69,71,73,75,77,79,81,83,85,87,89,91,93,95,97,99,101,103,105,107,109,111,113,115,117,119,121,123,125,-1,-1,-1,-1,-1,-1,-1,-1,-1,-1,-1,-1,-1,-1,-1,-1,-1,-1,-1,-1,-1,-1,-1,-1,-1,-1,-1,-1,-1,-1,-1,-1,-1,-1,-1,-1,-1,-1,-1,-1,-1,-1,-1,-1,-1,-1,-1,-1,-1,-1,-1,-1,-1,-1,-1,-1,-1,-1,-1,-1,-1,-1,-1,-1],"loss_changes":[4.415201E3,8.418712E2,1.1641582E3,5.563508E2,1.8036786E2,6.5885254E2,1.7952393E2,3.0475067E2,1.5373547E2,4.783719E1,3.487091E1,1.5554071E2,8.871216E1,4.5327698E1,3.7732666E1,2.9528564E1,5.657267E1,1.8855103E1,2.4931488E1,1.3797516E1,8.425337E0,1.160112E1,5.462448E0,6.7289795E1,3.6685093E1,4.388147E1,1.3831207E1,1.0645325E1,8.976288E0,1.855011E1,1.0590759E1,6.1824646E0,1.3162247E1,1.4001602E1,1.454513E1,3.9362793E0,1.092865E1,7.748047E0,7.9970245E0,3.7767048E0,5.247757E0,2.032299E0,3.263479E0,4.4744415E0,2.1529732E0,2.3557892E0,1.1910324E0,4.7200226E1,1.3407776E1,1.7700054E1,1.677047E1,1.1899048E1,1.747406E1,5.236725E0,6.4439087E0,7.6837463E0,2.9791107E0,2.791214E0,1.5826721E0,4.2799683E0,2.2130127E0,4.2892456E0,4.5430603E0,0E0,0E0,0E0,0E0,0E0,0E0,0E0,0E0,0E0,0E0,0E0,0E0,0E0,0E0,0E0,0E0,0E0,0E0,0E0,0E0,0E0,0E0,0E0,0E0,0E0,0E0,0E0,0E0,0E0,0E0,0E0,0E0,0E0,0E0,0E0,0E0,0E0,0E0,0E0,0E0,0E0,0E0,0E0,0E0,0E0,0E0,0E0,0E0,0E0,0E0,0E0,0E0,0E0,0E0,0E0,0E0,0E0,0E0,0E0,0E0,0E0,0E0,0E0,0E0],"parents":[2147483647,0,0,1,1,2,2,3,3,4,4,5,5,6,6,7,7,8,8,9,9,10,10,11,11,12,12,13,13,14,14,15,15,16,16,17,17,18,18,19,19,20,20,21,21,22,22,23,23,24,24,25,25,26,26,27,27,28,28,29,29,30,30,31,31,32,32,33,33,34,34,35,35,36,36,37,37,38,38,39,39,40,40,41,41,42,42,43,43,44,44,45,45,46,46,47,47,48,48,49,49,50,50,51,51,52,52,53,53,54,54,55,55,56,56,57,57,58,58,59,59,60,60,61,61,62,62],"right_children":[2,4,6,8,10,12,14,16,18,20,22,24,26,28,30,32,34,36,38,40,42,44,46,48,50,52,54,56,58,60,62,64,66,68,70,72,74,76,78,80,82,84,86,88,90,92,94,96,98,100,102,104,106,108,110,112,114,116,118,120,122,124,126,-1,-1,-1,-1,-1,-1,-1,-1,-1,-1,-1,-1,-1,-1,-1,-1,-1,-1,-1,-1,-1,-1,-1,-1,-1,-1,-1,-1,-1,-1,-1,-1,-1,-1,-1,-1,-1,-1,-1,-1,-1,-1,-1,-1,-1,-1,-1,-1,-1,-1,-1,-1,-1,-1,-1,-1,-1,-1,-1,-1,-1,-1,-1,-1],"split_conditions":[1.842712E-1,1.5408805E-1,2.861635E-1,1.2465999E-1,3.018868E-1,3.212104E-1,5.188679E-1,8.908127E-2,1.0182451E-1,1.2465999E-1,4.654088E-1,1.2465999E-1,1.2465999E-1,3.0992353E-1,3.048667E-1,5.0730206E-2,1.2884825E-1,6.5819815E-2,1.3511874E-1,1.0404952E-1,1.0874226E-1,1.2465999E-1,5.91195E-1,1.0377359E-1,2.2403818E-1,4.233181E-1,3.831061E-1,1.2465999E-1,4.298313E-1,7.075472E-1,7.075472E-1,5.345912E-2,7.54717E-2,6.918239E-2,7.54717E-2,6.603774E-2,7.861635E-2,7.232705E-2,7.54717E-2,2.0440252E-1,2.2012578E-1,2.1069182E-1,2.2012578E-1,3.6477986E-1,3.6477986E-1,1.2465999E-1,1.2465999E-1,2.370646E-1,1.918239E-1,1.2893082E-1,1.0691824E-1,1.3836478E-1,4.7392693E-1,1.0062893E-1,4.4791457E-1,3.9308175E-1,3.9308175E-1,1.2465999E-1,3.9308175E-1,1.2465999E-1,1.2465999E-1,4.4791457E-1,4.7392693E-1,-3.7088697E-3,-2.7799658E-3,-2.4430759E-3,-1.0431971E-3,-1.1855237E-3,1.672969E-4,3.4567813E-4,1.6918732E-3,-6.053109E-3,-5.0278353E-3,-5.001209E-3,-3.695219E-3,-3.8743601E-3,-2.6324582E-3,-2.5142669E-3,-1.2555574E-3,1.0279979E-3,2.8124284E-3,3.2693332E-3,4.9772128E-3,-1.7225717E-3,-6.937139E-5,1.9318353E-4,1.8998649E-3,6.5138154E-3,8.767833E-3,3.4752784E-3,5.6599653E-3,1.16271945E-2,8.66667E-3,1.5732685E-2,1.1910404E-2,1.9799904E-3,4.1676913E-3,5.0196457E-3,7.3616444E-3,-1.0012053E-3,2.1299897E-3,1.262593E-3,3.8280436E-3,7.830293E-3,1.0826061E-2,1.0495031E-2,1.5130733E-2,3.8725361E-3,6.2572598E-3,6.333153E-3,1.0534236E-2,9.725205E-3,1.2606707E-2,6.775947E-3,9.466838E-3,1.50308E-2,1.1883612E-2,1.71236E-2,2.0175956E-2,1.6617034E-2,1.33893015E-2,2.1875247E-2,1.8714665E-2,1.9624291E-2,2.4880921E-2,2.5190694E-2,3.1642158E-2],"split_indices":[0,1,1,4,1,0,1,0,0,4,1,4,4,0,0,0,0,0,0,0,0,4,1,1,0,0,0,4,0,1,1,1,1,1,1,1,1,1,1,1,1,1,1,1,1,4,4,0,1,1,1,1,0,1,0,1,1,4,1,4,4,0,0,0,0,0,0,0,0,0,0,0,0,0,0,0,0,0,0,0,0,0,0,0,0,0,0,0,0,0,0,0,0,0,0,0,0,0,0,0,0,0,0,0,0,0,0,0,0,0,0,0,0,0,0,0,0,0,0,0,0,0,0,0,0,0,0],"split_type":[0,0,0,0,0,0,0,0,0,0,0,0,0,0,0,0,0,0,0,0,0,0,0,0,0,0,0,0,0,0,0,0,0,0,0,0,0,0,0,0,0,0,0,0,0,0,0,0,0,0,0,0,0,0,0,0,0,0,0,0,0,0,0,0,0,0,0,0,0,0,0,0,0,0,0,0,0,0,0,0,0,0,0,0,0,0,0,0,0,0,0,0,0,0,0,0,0,0,0,0,0,0,0,0,0,0,0,0,0,0,0,0,0,0,0,0,0,0,0,0,0,0,0,0,0,0,0],"sum_hessian":[4.558508E6,3.293574E6,1.264934E6,3.019101E6,2.74473E5,1.146189E6,1.18745E5,1.83366E6,1.185441E6,2.04114E5,7.0359E4,8.20025E5,3.26164E5,7.4939E4,4.3806E4,8.50292E5,9.83368E5,6.34287E5,5.51154E5,1.22649E5,8.1465E4,5.3734E4,1.6625E4,5.09499E5,3.10526E5,2.26857E5,9.9307E4,5.508E4,1.9859E4,2.8986E4,1.482E4,3.39753E5,5.10539E5,4.71887E5,5.11481E5,2.41438E5,3.92849E5,2.69124E5,2.8203E5,4.8313E4,7.4336E4,3.4385E4,4.708E4,3.5474E4,1.826E4,1.2232E4,4.393E3,3.96541E5,1.12958E5,1.32424E5,1.78102E5,1.65716E5,6.1141E4,5.7581E4,4.1726E4,3.8162E4,1.6918E4,1.2761E4,7.098E3,1.8706E4,1.028E4,7.796E3,7.024E3,2.37033E5,1.0272E5,4.3097E5,7.9569E4,3.75826E5,9.6061E4,4.11791E5,9.969E4,1.95045E5,4.6393E4,3.12209E5,8.064E4,2.02275E5,6.6849E4,2.16175E5,6.5855E4,2.7394E4,2.0919E4,4.3779E4,3.0557E4,2.3509E4,1.0876E4,2.8703E4,1.8377E4,1.908E4,1.6394E4,1.009E4,8.17E3,8.208E3,4.024E3,3.283E3,1.11E3,2.12535E5,1.84006E5,7.7168E4,3.579E4,1.1086E5,2.1564E4,1.47291E5,3.0811E4,1.51175E5,1.4541E4,5.1477E4,9.664E3,4.6068E4,1.1513E4,3.7681E4,4.045E3,2.2306E4,1.5856E4,9.805E3,7.113E3,8.503E3,4.258E3,4.081E3,3.017E3,1.2548E4,6.158E3,6.93E3,3.35E3,5.622E3,2.174E3,5.646E3,1.378E3],"tree_param":{"num_deleted":"0","num_feature":"5","num_nodes":"127","size_leaf_vector":"1"}},{"base_weights":[3.0167772E-7,-1.553519E-2,5.0698787E-2,-1.9424746E-2,4.4483185E-2,4.120449E-2,1.328398E-1,-9.530209E-3,-3.477618E-2,3.0909302E-2,8.807966E-2,2.8794698E-2,7.720259E-2,1.1159851E-1,1.9234453E-1,-2.0008026E-2,5.7136333E-3,-4.3559726E-2,-2.0259142E-2,4.1284803E-2,1.333474E-2,7.551136E-2,1.2152335E-1,3.8400386E-2,1.4317627E-2,7.29598E-2,1.136339E-1,1.0100455E-1,1.5757549E-1,1.7708397E-1,2.3236014E-1,-2.6765054E-2,-1.2306553E-2,3.0735896E-3,2.2355402E-2,-4.8870876E-2,-3.5922173E-2,-2.2873588E-2,-5.2525247E-3,3.2283604E-2,5.391955E-2,1.3544059E-3,2.2629065E-2,8.466243E-2,5.7098493E-2,1.154513E-1,1.6125645E-1,3.1133695E-2,5.403159E-2,5.1051974E-3,2.8849943E-2,7.936409E-2,5.3258575E-2,9.8665655E-2,1.3323769E-1,8.56926E-2,1.18760295E-1,1.4082709E-1,1.7574209E-1,1.562663E-1,1.9486819E-1,2.1839976E-1,2.6453024E-1,-2.8442543E-3,-9.6068525E-4,-1.4561008E-3,4.95171E-4,-2.1155411E-4,1.0277883E-3,1.7278796E-3,2.9355118E-3,-5.0596218E-3,-3.3589639E-3,-3.831672E-3,-2.0198612E-3,-2.8185246E-3,-1.6408833E-3,-1.0268522E-3,2.458119E-4,2.3550063E-3,4.3494534E-3,4.4139363E-3,6.3144052E-3,-4.512718E-4,1.485688E-3,1.4522492E-3,3.281508E-3,7.3867263E-3,9.266503E-3,4.3868166E-3,6.3625462E-3,1.2451677E-2,9.588748E-3,1.7042426E-2,1.3801861E-2,2.65855E-3,5.3148055E-3,4.853035E-3,7.457682E-3,4.80049E-5,2.1140086E-3,2.3973964E-3,4.284333E-3,7.5217667E-3,9.855554E-3,4.9176137E-3,7.3586204E-3,8.845394E-3,1.2165652E-2,1.2926971E-2,2.1465408E-2,9.345444E-3,6.750762E-3,1.0713219E-2,1.3499699E-2,1.5121545E-2,1.1236357E-2,1.8596573E-2,1.4730644E-2,1.6561775E-2,1.3577247E-2,2.0464994E-2,1.7474866E-2,1.9031836E-2,2.3519117E-2,2.376799E-2,2.8480235E-2],"categories":[],"categories_nodes":[],"categories_segments":[],"categories_sizes":[],"default_left":[0,0,0,0,0,0,0,0,0,0,0,0,0,0,0,0,0,0,0,0,0,0,0,0,0,0,0,0,0,0,0,0,0,0,0,0,0,0,0,0,0,0,0,0,0,0,0,0,0,0,0,0,0,0,0,0,0,0,0,0,0,0,0,0,0,0,0,0,0,0,0,0,0,0,0,0,0,0,0,0,0,0,0,0,0,0,0,0,0,0,0,0,0,0,0,0,0,0,0,0,0,0,0,0,0,0,0,0,0,0,0,0,0,0,0,0,0,0,0,0,0,0,0,0,0,0,0],"id":3,"left_children":[1,3,5,7,9,11,13,15,17,19,21,23,25,27,29,31,33,35,37,39,41,43,45,47,49,51,53,55,57,59,61,63,65,67,69,71,73,75,77,79,81,83,85,87,89,91,93,95,97,99,101,103,105,107,109,111,113,115,117,119,121,123,125,-1,-1,-1,-1,-1,-1,-1,-1,-1,-1,-1,-1,-1,-1,-1,-1,-1,-1,-1,-1,-1,-1,-1,-1,-1,-1,-1,-1,-1,-1,-1,-1,-1,-1,-1,-1,-1,-1,-1,-1,-1,-1,-1,-1,-1,-1,-1,-1,-1,-1,-1,-1,-1,-1,-1,-1,-1,-1,-1,-1,-1,-1,-1,-1],"loss_changes":[3.5904004E3,8.1455756E2,8.338484E2,4.977495E2,1.2566928E2,4.2816064E2,1.400011E2,3.182653E2,1.6376294E2,2.9529297E1,2.1184326E1,9.91142E1,3.7970215E1,3.9749634E1,1.775415E1,6.145346E1,3.566201E1,3.24563E1,1.8994766E1,1.1578934E1,6.6940584E0,6.1707764E0,3.303772E0,4.86651E1,3.8059345E1,2.7763184E1,7.5069885E0,1.803003E1,4.6264954E0,7.781311E0,3.553894E0,1.8104797E1,2.1473045E1,2.6189953E1,3.9487267E0,1.2441772E1,1.2356476E1,1.41577E1,2.7783177E0,5.821457E0,3.8189926E0,2.0807984E0,2.7949715E0,2.1080475E0,1.0482178E0,2.1072845E0,3.648491E-1,2.9283813E1,1.5364197E1,1.290374E1,7.5246277E0,1.3209106E1,4.477066E0,3.4019623E0,3.5559387E0,5.0232544E0,5.7861023E0,2.3363953E0,2.1032715E0,1.8414764E0,2.2028809E0,2.602417E0,1.2544403E0,0E0,0E0,0E0,0E0,0E0,0E0,0E0,0E0,0E0,0E0,0E0,0E0,0E0,0E0,0E0,0E0,0E0,0E0,0E0,0E0,0E0,0E0,0E0,0E0,0E0,0E0,0E0,0E0,0E0,0E0,0E0,0E0,0E0,0E0,0E0,0E0,0E0,0E0,0E0,0E0,0E0,0E0,0E0,0E0,0E0,0E0,0E0,0E0,0E0,0E0,0E0,0E0,0E0,0E0,0E0,0E0,0E0,0E0,0E0,0E0,0E0,0E0,0E0,0E0],"parents":[2147483647,0,0,1,1,2,2,3,3,4,4,5,5,6,6,7,7,8,8,9,9,10,10,11,11,12,12,13,13,14,14,15,15,16,16,17,17,18,18,19,19,20,20,21,21,22,22,23,23,24,24,25,25,26,26,27,27,28,28,29,29,30,30,31,31,32,32,33,33,34,34,35,35,36,36,37,37,38,38,39,39,40,40,41,41,42,42,43,43,44,44,45,45,46,46,47,47,48,48,49,49,50,50,51,51,52,52,53,53,54,54,55,55,56,56,57,57,58,58,59,59,60,60,61,61,62,62],"right_children":[2,4,6,8,10,12,14,16,18,20,22,24,26,28,30,32,34,36,38,40,42,44,46,48,50,52,54,56,58,60,62,64,66,68,70,72,74,76,78,80,82,84,86,88,90,92,94,96,98,100,102,104,106,108,110,112,114,116,118,120,122,124,126,-1,-1,-1,-1,-1,-1,-1,-1,-1,-1,-1,-1,-1,-1,-1,-1,-1,-1,-1,-1,-1,-1,-1,-1,-1,-1,-1,-1,-1,-1,-1,-1,-1,-1,-1,-1,-1,-1,-1,-1,-1,-1,-1,-1,-1,-1,-1,-1,-1,-1,-1,-1,-1,-1,-1,-1,-1,-1,-1,-1,-1,-1,-1,-1],"split_conditions":[1.9972491E-1,1.918239E-1,2.735849E-1,1.2465999E-1,3.6477986E-1,3.5976374E-1,5.91195E-1,1.1359683E-1,1.1735912E-1,1.2465999E-1,5.188679E-1,1.2465999E-1,4.4791457E-1,3.5976374E-1,3.3553138E-1,7.132166E-2,1.0062893E-1,8.33367E-2,1.0377359E-1,2.610063E-1,1.2136413E-1,1.2465999E-1,7.075472E-1,2.7820703E-1,2.744852E-1,1.2465999E-1,4.7392693E-1,3.9308175E-1,3.9308175E-1,7.075472E-1,4.7392693E-1,8.805031E-2,9.7484276E-2,1.6092885E-1,1.6291112E-1,9.4339624E-2,1.0691824E-1,1.5781383E-1,1.6189976E-1,1.33986E-1,1.3192281E-1,2.610063E-1,2.610063E-1,1.4240058E-1,1.4025648E-1,1.2465999E-1,3.1075668E-2,1.2264151E-1,1.0377359E-1,9.4339624E-2,8.805031E-2,9.4339624E-2,1.0377359E-1,1.2578617E-1,4.983E3,1.2465999E-1,2.5870788E-1,1.2465999E-1,1.2465999E-1,1.2465999E-1,1.2465999E-1,7.075472E-1,7.075472E-1,-2.8442543E-3,-9.6068525E-4,-1.4561008E-3,4.95171E-4,-2.1155411E-4,1.0277883E-3,1.7278796E-3,2.9355118E-3,-5.0596218E-3,-3.3589639E-3,-3.831672E-3,-2.0198612E-3,-2.8185246E-3,-1.6408833E-3,-1.0268522E-3,2.458119E-4,2.3550063E-3,4.3494534E-3,4.4139363E-3,6.3144052E-3,-4.512718E-4,1.485688E-3,1.4522492E-3,3.281508E-3,7.3867263E-3,9.266503E-3,4.3868166E-3,6.3625462E-3,1.2451677E-2,9.588748E-3,1.7042426E-2,1.3801861E-2,2.65855E-3,5.3148055E-3,4.853035E-3,7.457682E-3,4.80049E-5,2.1140086E-3,2.3973964E-3,4.284333E-3,7.5217667E-3,9.855554E-3,4.9176137E-3,7.3586204E-3,8.845394E-3,1.2165652E-2,1.2926971E-2,2.1465408E-2,9.345444E-3,6.750762E-3,1.0713219E-2,1.3499699E-2,1.5121545E-2,1.1236357E-2,1.8596573E-2,1.4730644E-2,1.6561775E-2,1.3577247E-2,2.0464994E-2,1.7474866E-2,1.9031836E-2,2.3519117E-2,2.376799E-2,2.8480235E-2],"split_indices":[0,1,1,4,1,0,1,0,0,4,1,4,0,0,0,0,1,0,1,1,0,4,1,0,0,4,0,1,1,1,0,1,1,0,0,1,1,0,0,0,0,1,1,0,0,4,4,1,1,1,1,1,1,1,3,4,0,4,4,4,4,1,1,0,0,0,0,0,0,0,0,0,0,0,0,0,0,0,0,0,0,0,0,0,0,0,0,0,0,0,0,0,0,0,0,0,0,0,0,0,0,0,0,0,0,0,0,0,0,0,0,0,0,0,0,0,0,0,0,0,0,0,0,0,0,0,0],"split_type":[0,0,0,0,0,0,0,0,0,0,0,0,0,0,0,0,0,0,0,0,0,0,0,0,0,0,0,0,0,0,0,0,0,0,0,0,0,0,0,0,0,0,0,0,0,0,0,0,0,0,0,0,0,0,0,0,0,0,0,0,0,0,0,0,0,0,0,0,0,0,0,0,0,0,0,0,0,0,0,0,0,0,0,0,0,0,0,0,0,0,0,0,0,0,0,0,0,0,0,0,0,0,0,0,0,0,0,0,0,0,0,0,0,0,0,0,0,0,0,0,0,0,0,0,0,0,0],"sum_hessian":[4.558508E6,3.489289E6,1.069219E6,3.276925E6,2.12364E5,9.58439E5,1.1078E5,1.992616E6,1.284309E6,1.61944E5,5.042E4,7.12736E5,2.45703E5,8.164E4,2.914E4,1.180916E6,8.117E5,8.00166E5,4.84143E5,1.01827E5,6.0117E4,3.665E4,1.377E4,4.28452E5,2.84284E5,2.20076E5,2.5627E4,6.6354E4,1.5286E4,2.1099E4,8.041E3,6.29026E5,5.5189E5,7.00564E5,1.11136E5,4.7196E5,3.28206E5,4.1231E5,7.1833E4,5.9466E4,4.2361E4,2.6264E4,3.3853E4,2.448E4,1.217E4,1.1948E4,1.822E3,2.92484E5,1.35968E5,1.73989E5,1.10295E5,1.66084E5,5.3992E4,1.4535E4,1.1092E4,3.5632E4,3.0722E4,7.958E3,7.328E3,9.725E3,1.1374E4,5.613E3,2.428E3,5.73005E5,5.6021E4,4.88126E5,6.3764E4,4.07238E5,2.93326E5,6.4419E4,4.6717E4,4.24077E5,4.7883E4,2.84828E5,4.3378E4,2.26339E5,1.85971E5,4.3521E4,2.8312E4,3.3428E4,2.6038E4,2.0564E4,2.1797E4,1.8309E4,7.955E3,1.8852E4,1.5001E4,1.0426E4,1.4054E4,4.023E3,8.147E3,8.161E3,3.787E3,1.302E3,5.2E2,2.42405E5,5.0079E4,1.07253E5,2.8715E4,1.35039E5,3.895E4,8.1796E4,2.8499E4,1.3658E5,2.9504E4,4.4965E4,9.027E3,1.0068E4,4.467E3,1.0579E4,5.13E2,2.497E4,1.0662E4,1.7906E4,1.2816E4,5.827E3,2.131E3,5.386E3,1.942E3,6.673E3,3.052E3,7.647E3,3.727E3,2.105E3,3.508E3,1.05E3,1.378E3],"tree_param":{"num_deleted":"0","num_feature":"5","num_nodes":"127","size_leaf_vector":"1"}},{"base_weights":[3.732936E-7,-1.3532202E-2,4.7206286E-2,-1.7792478E-2,3.2819923E-2,3.7985615E-2,1.1678501E-1,-8.883119E-3,-3.169336E-2,2.1320563E-2,7.5693764E-2,2.6967164E-2,7.0478804E-2,9.407886E-2,1.6379406E-1,-1.8320115E-2,5.079659E-3,-3.939692E-2,-1.8051665E-2,3.124303E-2,5.4967366E-3,6.4819574E-2,1.1036454E-1,3.5755057E-2,1.4074464E-2,6.806269E-2,1.19021185E-1,8.471917E-2,1.3637146E-1,1.4471292E-1,1.9120055E-1,-2.421071E-2,-1.132812E-2,6.400393E-4,1.23448E-2,-4.419669E-2,-3.260201E-2,-2.219509E-2,-1.15166325E-2,1.8267874E-2,3.8598727E-2,-2.2747754E-3,1.8113445E-2,7.302163E-2,4.84544E-2,9.550198E-2,1.244025E-1,2.9325249E-2,5.0157595E-2,6.4731254E-3,2.88862E-2,7.337551E-2,4.997483E-2,8.2141384E-2,1.2824659E-1,7.413742E-2,9.900314E-2,1.4512022E-1,1.1088682E-1,1.3513128E-1,1.883574E-1,1.7814401E-1,2.298307E-1,-3.008144E-3,-2.084589E-3,-1.3374689E-3,-1.5908734E-4,-2.0916502E-4,8.382738E-4,9.39037E-4,2.1279387E-3,-4.6307123E-3,-3.6221535E-3,-3.535875E-3,-2.4653082E-3,-2.4319328E-3,-1.2527996E-3,-1.4641549E-3,-3.1652642E-4,1.2558082E-3,3.1427895E-3,3.3087132E-3,5.211142E-3,-7.918714E-4,1.1253722E-3,1.1433846E-3,2.947132E-3,6.5214704E-3,8.5767675E-3,4.0898933E-3,6.1278585E-3,1.0331483E-2,7.983074E-3,1.162285E-2,1.449333E-2,2.4566806E-3,4.3108417E-3,4.5552105E-3,6.558052E-3,2.115649E-4,1.8236804E-3,2.4289328E-3,3.8451904E-3,6.997015E-3,9.445309E-3,4.4413907E-3,6.397673E-3,7.0626526E-3,1.06520625E-2,1.2413084E-2,1.9296614E-2,6.4550564E-3,8.760469E-3,8.527483E-3,1.09744035E-2,1.3599326E-2,1.6747987E-2,1.0281447E-2,1.2717142E-2,1.4434996E-2,1.15251485E-2,1.983268E-2,1.5992092E-2,1.8682582E-2,1.6015604E-2,2.1816444E-2,2.6504451E-2],"categories":[],"categories_nodes":[],"categories_segments":[],"categories_sizes":[],"default_left":[0,0,0,0,0,0,0,0,0,0,0,0,0,0,0,0,0,0,0,0,0,0,0,0,0,0,0,0,0,0,0,0,0,0,0,0,0,0,0,0,0,0,0,0,0,0,0,0,0,0,0,0,0,0,0,0,0,0,0,0,0,0,0,0,0,0,0,0,0,0,0,0,0,0,0,0,0,0,0,0,0,0,0,0,0,0,0,0,0,0,0,0,0,0,0,0,0,0,0,0,0,0,0,0,0,0,0,0,0,0,0,0,0,0,0,0,0,0,0,0,0,0,0,0,0,0,0],"id":4,"left_children":[1,3,5,7,9,11,13,15,17,19,21,23,25,27,29,31,33,35,37,39,41,43,45,47,49,51,53,55,57,59,61,63,65,67,69,71,73,75,77,79,81,83,85,87,89,91,93,95,97,99,101,103,105,107,109,111,113,115,117,119,121,123,125,-1,-1,-1,-1,-1,-1,-1,-1,-1,-1,-1,-1,-1,-1,-1,-1,-1,-1,-1,-1,-1,-1,-1,-1,-1,-1,-1,-1,-1,-1,-1,-1,-1,-1,-1,-1,-1,-1,-1,-1,-1,-1,-1,-1,-1,-1,-1,-1,-1,-1,-1,-1,-1,-1,-1,-1,-1,-1,-1,-1,-1,-1,-1,-1],"loss_changes":[2.9120562E3,6.996216E2,6.5159155E2,4.0184338E2,1.4702734E2,3.2107312E2,1.26838135E2,2.6054733E2,1.3318091E2,3.692122E1,2.377127E1,7.5876495E1,2.6626587E1,3.171106E1,2.0213501E1,4.8595825E1,2.5721315E1,2.641394E1,1.2384384E1,1.37929535E1,8.886101E0,6.4412994E0,3.1296234E0,3.687848E1,3.0562664E1,2.0785095E1,3.6523895E0,9.911102E0,3.221283E0,9.518768E0,7.970581E0,1.2649414E1,1.0751282E1,1.0469123E1,7.9840546E0,7.9871826E0,7.346344E0,5.74765E0,4.631523E0,3.9288025E0,6.8676147E0,4.282251E0,2.6204567E0,3.1768646E0,1.5509758E0,8.877487E-1,1.2820663E0,1.8057022E1,8.727753E0,9.195637E0,4.047287E0,1.1995361E1,3.8216553E0,5.9799767E-1,2.2694855E0,4.861603E0,4.107849E0,2.1824646E0,4.7528076E-1,3.4137573E0,1.132309E0,1.824707E0,1.5891266E0,0E0,0E0,0E0,0E0,0E0,0E0,0E0,0E0,0E0,0E0,0E0,0E0,0E0,0E0,0E0,0E0,0E0,0E0,0E0,0E0,0E0,0E0,0E0,0E0,0E0,0E0,0E0,0E0,0E0,0E0,0E0,0E0,0E0,0E0,0E0,0E0,0E0,0E0,0E0,0E0,0E0,0E0,0E0,0E0,0E0,0E0,0E0,0E0,0E0,0E0,0E0,0E0,0E0,0E0,0E0,0E0,0E0,0E0,0E0,0E0,0E0,0E0,0E0,0E0],"parents":[2147483647,0,0,1,1,2,2,3,3,4,4,5,5,6,6,7,7,8,8,9,9,10,10,11,11,12,12,13,13,14,14,15,15,16,16,17,17,18,18,19,19,20,20,21,21,22,22,23,23,24,24,25,25,26,26,27,27,28,28,29,29,30,30,31,31,32,32,33,33,34,34,35,35,36,36,37,37,38,38,39,39,40,40,41,41,42,42,43,43,44,44,45,45,46,46,47,47,48,48,49,49,50,50,51,51,52,52,53,53,54,54,55,55,56,56,57,57,58,58,59,59,60,60,61,61,62,62],"right_children":[2,4,6,8,10,12,14,16,18,20,22,24,26,28,30,32,34,36,38,40,42,44,46,48,50,52,54,56,58,60,62,64,66,68,70,72,74,76,78,80,82,84,86,88,90,92,94,96,98,100,102,104,106,108,110,112,114,116,118,120,122,124,126,-1,-1,-1,-1,-1,-1,-1,-1,-1,-1,-1,-1,-1,-1,-1,-1,-1,-1,-1,-1,-1,-1,-1,-1,-1,-1,-1,-1,-1,-1,-1,-1,-1,-1,-1,-1,-1,-1,-1,-1,-1,-1,-1,-1,-1,-1,-1,-1,-1,-1,-1,-1,-1,-1,-1,-1,-1,-1,-1,-1,-1,-1,-1,-1],"split_conditions":[2.0461993E-1,1.6037735E-1,2.4842767E-1,1.2465999E-1,3.427673E-1,3.6769286E-1,5.188679E-1,1.150532E-1,1.2051459E-1,1.2465999E-1,5.188679E-1,1.2465999E-1,4.7392693E-1,3.6769286E-1,7.075472E-1,7.265666E-2,1.666734E-1,8.398398E-2,1.6574295E-1,1.0874226E-1,1.4025648E-1,1.2465999E-1,5.91195E-1,2.8536752E-1,2.8884664E-1,1.2465999E-1,3.94E2,3.6477986E-1,1.2465999E-1,3.7546018E-1,3.5183463E-1,4.3650635E-2,7.232705E-2,6.603774E-2,7.232705E-2,6.918239E-2,7.232705E-2,8.805031E-2,7.232705E-2,2.389937E-1,2.610063E-1,2.389937E-1,2.389937E-1,4.245283E-1,4.245283E-1,1.2465999E-1,7.075472E-1,8.805031E-2,9.4339624E-2,8.176101E-2,7.54717E-2,1.1006289E-1,7.861635E-2,1.1320755E-1,4.983E3,2.558356E-1,2.4515554E-1,4.7392693E-1,3.9308175E-1,1.2465999E-1,1.2465999E-1,1.2465999E-1,2.288E3,-3.008144E-3,-2.084589E-3,-1.3374689E-3,-1.5908734E-4,-2.0916502E-4,8.382738E-4,9.39037E-4,2.1279387E-3,-4.6307123E-3,-3.6221535E-3,-3.535875E-3,-2.4653082E-3,-2.4319328E-3,-1.2527996E-3,-1.4641549E-3,-3.1652642E-4,1.2558082E-3,3.1427895E-3,3.3087132E-3,5.211142E-3,-7.918714E-4,1.1253722E-3,1.1433846E-3,2.947132E-3,6.5214704E-3,8.5767675E-3,4.0898933E-3,6.1278585E-3,1.0331483E-2,7.983074E-3,1.162285E-2,1.449333E-2,2.4566806E-3,4.3108417E-3,4.5552105E-3,6.558052E-3,2.115649E-4,1.8236804E-3,2.4289328E-3,3.8451904E-3,6.997015E-3,9.445309E-3,4.4413907E-3,6.397673E-3,7.0626526E-3,1.06520625E-2,1.2413084E-2,1.9296614E-2,6.4550564E-3,8.760469E-3,8.527483E-3,1.09744035E-2,1.3599326E-2,1.6747987E-2,1.0281447E-2,1.2717142E-2,1.4434996E-2,1.15251485E-2,1.983268E-2,1.5992092E-2,1.8682582E-2,1.6015604E-2,2.1816444E-2,2.6504451E-2],"split_indices":[0,1,1,4,1,0,1,0,0,4,1,4,0,0,1,0,0,0,0,0,0,4,1,0,0,4,2,1,4,0,0,0,1,1,1,1,1,1,1,1,1,1,1,1,1,4,1,1,1,1,1,1,1,1,3,0,0,0,1,4,4,4,3,0,0,0,0,0,0,0,0,0,0,0,0,0,0,0,0,0,0,0,0,0,0,0,0,0,0,0,0,0,0,0,0,0,0,0,0,0,0,0,0,0,0,0,0,0,0,0,0,0,0,0,0,0,0,0,0,0,0,0,0,0,0,0,0],"split_type":[0,0,0,0,0,0,0,0,0,0,0,0,0,0,0,0,0,0,0,0,0,0,0,0,0,0,0,0,0,0,0,0,0,0,0,0,0,0,0,0,0,0,0,0,0,0,0,0,0,0,0,0,0,0,0,0,0,0,0,0,0,0,0,0,0,0,0,0,0,0,0,0,0,0,0,0,0,0,0,0,0,0,0,0,0,0,0,0,0,0,0,0,0,0,0,0,0,0,0,0,0,0,0,0,0,0,0,0,0,0,0,0,0,0,0,0,0,0,0,0,0,0,0,0,0,0,0],"sum_hessian":[4.558508E6,3.54287E6,1.015638E6,3.244651E6,2.98219E5,8.96795E5,1.18843E5,1.977337E6,1.267314E6,2.3515E5,6.3069E4,6.69701E5,2.27094E5,8.0138E4,3.8705E4,1.179888E6,7.97449E5,8.09936E5,4.57378E5,1.44524E5,9.0626E4,4.8013E4,1.5056E4,3.98247E5,2.71454E5,2.16329E5,1.0765E4,6.5619E4,1.4519E4,2.2822E4,1.5883E4,6.4038E5,5.39508E5,4.94977E5,3.02472E5,4.74649E5,3.35287E5,2.79906E5,1.77472E5,5.229E4,9.2234E4,5.6082E4,3.4544E4,3.1981E4,1.6032E4,7.317E3,7.739E3,2.75332E5,1.22915E5,1.79392E5,9.2062E4,1.67212E5,4.9117E4,2.156E3,8.609E3,3.7698E4,2.7921E4,1.0805E4,3.714E3,1.8717E4,4.105E3,1.1875E4,4.008E3,2.33309E5,4.07071E5,4.45808E5,9.37E4,3.65889E5,1.29088E5,2.27309E5,7.5163E4,3.75324E5,9.9325E4,2.48947E5,8.634E4,2.29479E5,5.0427E4,1.29147E5,4.8325E4,3.6469E4,1.5821E4,6.5515E4,2.6719E4,3.9573E4,1.6509E4,2.1753E4,1.2791E4,1.9837E4,1.2144E4,1.0091E4,5.941E3,4.879E3,2.438E3,5.54E3,2.199E3,2.04674E5,7.0658E4,9.4654E4,2.8261E4,1.30904E5,4.8488E4,6.2183E4,2.9879E4,1.43958E5,2.3254E4,3.5158E4,1.3959E4,1.467E3,6.89E2,8.097E3,5.12E2,2.2025E4,1.5673E4,1.226E4,1.5661E4,7.678E3,3.127E3,2.488E3,1.226E3,1.2783E4,5.934E3,3.035E3,1.07E3,8.003E3,3.872E3,3.016E3,9.92E2],"tree_param":{"num_deleted":"0","num_feature":"5","num_nodes":"127","size_leaf_vector":"1"}},{"base_weights":[4.2423932E-7,-1.4243152E-2,3.6358636E-2,-1.8043023E-2,2.1792138E-2,2.8768456E-2,1.0120102E-1,-1.0092501E-2,-3.0371394E-2,1.19571425E-2,5.627026E-2,1.6506655E-2,5.4553226E-2,8.09876E-2,1.426035E-1,-2.0265605E-2,-1.3324289E-3,-3.860773E-2,-2.197633E-2,2.132261E-2,-1.6926905E-3,4.458288E-2,7.879979E-2,2.4348056E-2,3.4293388E-3,4.3519035E-2,6.8819255E-2,6.8410054E-2,1.0822567E-1,1.2390644E-1,1.7006546E-1,-2.6356163E-2,-1.712316E-2,-6.2893257E-3,5.016725E-3,-4.488304E-2,-3.586052E-2,-2.6218928E-2,-1.5848776E-2,9.069983E-3,2.6393207E-2,-1.1287217E-2,4.534104E-3,5.222173E-2,2.9880108E-2,7.2560586E-2,1.0776001E-1,2.0084735E-2,3.8063362E-2,-3.3309225E-3,1.2006753E-2,5.2289873E-2,3.0687464E-2,6.600464E-2,1.075183E-1,7.580959E-2,5.1766742E-2,9.688311E-2,1.3183881E-1,1.11224554E-1,1.4798301E-1,1.5192884E-1,1.908006E-1,-2.9806818E-3,-2.2448418E-3,-1.966496E-3,-1.1690067E-3,-9.231101E-4,-9.899761E-5,2.498754E-4,1.0222882E-3,-4.719668E-3,-4.133438E-3,-3.7887667E-3,-2.9781924E-3,-2.8506794E-3,-2.0312206E-3,-1.805588E-3,-9.779161E-4,5.482898E-4,1.6829625E-3,2.1163987E-3,3.3935376E-3,-1.4053303E-3,-2.1217584E-4,-6.6641485E-5,1.1681885E-3,4.5872065E-3,6.158397E-3,2.0909067E-3,3.5485767E-3,7.974518E-3,5.778588E-3,1.15469955E-2,8.47834E-3,1.3177666E-3,2.860463E-3,3.1644402E-3,4.7910507E-3,-7.0103526E-4,1.420036E-3,9.66997E-4,3.1502896E-3,5.0227656E-3,7.4266265E-3,2.8603773E-3,5.3006583E-3,7.0996657E-3,4.8630848E-3,7.5324364E-3,1.1580785E-2,6.7388527E-3,9.13585E-3,4.2273765E-3,6.2692203E-3,8.62043E-3,1.1003035E-2,1.2784469E-2,1.6807359E-2,1.1939007E-2,9.483988E-3,1.3088696E-2,1.5640644E-2,1.4238375E-2,1.841587E-2,1.7953625E-2,2.2205276E-2],"categories":[],"categories_nodes":[],"categories_segments":[],"categories_sizes":[],"default_left":[0,0,0,0,0,0,0,0,0,0,0,0,0,0,0,0,0,0,0,0,0,0,0,0,0,0,0,0,0,0,0,0,0,0,0,0,0,0,0,0,0,0,0,0,0,0,0,0,0,0,0,0,0,0,0,0,0,0,0,0,0,0,0,0,0,0,0,0,0,0,0,0,0,0,0,0,0,0,0,0,0,0,0,0,0,0,0,0,0,0,0,0,0,0,0,0,0,0,0,0,0,0,0,0,0,0,0,0,0,0,0,0,0,0,0,0,0,0,0,0,0,0,0,0,0,0,0],"id":5,"left_children":[1,3,5,7,9,11,13,15,17,19,21,23,25,27,29,31,33,35,37,39,41,43,45,47,49,51,53,55,57,59,61,63,65,67,69,71,73,75,77,79,81,83,85,87,89,91,93,95,97,99,101,103,105,107,109,111,113,115,117,119,121,123,125,-1,-1,-1,-1,-1,-1,-1,-1,-1,-1,-1,-1,-1,-1,-1,-1,-1,-1,-1,-1,-1,-1,-1,-1,-1,-1,-1,-1,-1,-1,-1,-1,-1,-1,-1,-1,-1,-1,-1,-1,-1,-1,-1,-1,-1,-1,-1,-1,-1,-1,-1,-1,-1,-1,-1,-1,-1,-1,-1,-1,-1,-1,-1,-1],"loss_changes":[2.36072E3,4.4849414E2,6.3151746E2,2.904171E2,1.0594426E2,3.6317688E2,1.1251599E2,1.605255E2,8.032031E1,3.1076588E1,1.8255264E1,7.9829254E1,5.8271973E1,3.0946106E1,2.2626953E1,1.5950684E1,3.046068E1,1.0107117E1,1.4955017E1,8.957024E0,5.909962E0,5.1266174E0,4.2716217E0,2.8456116E1,1.6921213E1,2.349176E1,1.7579102E1,7.608551E0,7.631195E0,7.997406E0,6.689087E0,3.8242035E0,7.592041E0,8.473257E0,5.5626163E0,1.4638672E0,5.024231E0,4.593033E0,3.1527557E0,1.1745789E0,4.021057E0,9.870167E-1,2.229966E0,1.7833862E0,7.844639E-1,2.0641556E0,7.335243E-1,2.1847702E1,7.2929993E0,1.0527079E1,5.8594894E0,5.6156616E0,3.9402008E0,1.3050354E1,2.9121933E0,5.596298E0,1.9707375E0,2.6977844E0,1.3183899E0,2.2891846E0,1.2830963E0,2.906784E0,2.8929749E0,0E0,0E0,0E0,0E0,0E0,0E0,0E0,0E0,0E0,0E0,0E0,0E0,0E0,0E0,0E0,0E0,0E0,0E0,0E0,0E0,0E0,0E0,0E0,0E0,0E0,0E0,0E0,0E0,0E0,0E0,0E0,0E0,0E0,0E0,0E0,0E0,0E0,0E0,0E0,0E0,0E0,0E0,0E0,0E0,0E0,0E0,0E0,0E0,0E0,0E0,0E0,0E0,0E0,0E0,0E0,0E0,0E0,0E0,0E0,0E0,0E0,0E0,0E0,0E0],"parents":[2147483647,0,0,1,1,2,2,3,3,4,4,5,5,6,6,7,7,8,8,9,9,10,10,11,11,12,12,13,13,14,14,15,15,16,16,17,17,18,18,19,19,20,20,21,21,22,22,23,23,24,24,25,25,26,26,27,27,28,28,29,29,30,30,31,31,32,32,33,33,34,34,35,35,36,36,37,37,38,38,39,39,40,40,41,41,42,42,43,43,44,44,45,45,46,46,47,47,48,48,49,49,50,50,51,51,52,52,53,53,54,54,55,55,56,56,57,57,58,58,59,59,60,60,61,61,62,62],"right_children":[2,4,6,8,10,12,14,16,18,20,22,24,26,28,30,32,34,36,38,40,42,44,46,48,50,52,54,56,58,60,62,64,66,68,70,72,74,76,78,80,82,84,86,88,90,92,94,96,98,100,102,104,106,108,110,112,114,116,118,120,122,124,126,-1,-1,-1,-1,-1,-1,-1,-1,-1,-1,-1,-1,-1,-1,-1,-1,-1,-1,-1,-1,-1,-1,-1,-1,-1,-1,-1,-1,-1,-1,-1,-1,-1,-1,-1,-1,-1,-1,-1,-1,-1,-1,-1,-1,-1,-1,-1,-1,-1,-1,-1,-1,-1,-1,-1,-1,-1,-1,-1,-1,-1,-1,-1,-1],"split_conditions":[1.8301712E-1,1.4150943E-1,2.610063E-1,1.2465999E-1,3.018868E-1,3.048667E-1,5.188679E-1,8.827218E-2,9.7172216E-2,1.2465999E-1,4.245283E-1,1.2465999E-1,3.9621344E-1,2.8884664E-1,2.8884664E-1,4.7089282E-2,1.3722238E-1,6.0237065E-2,1.4134876E-1,9.073991E-2,1.04696795E-1,1.2465999E-1,5.91195E-1,9.4339624E-2,2.3989643E-1,1.2465999E-1,4.7392693E-1,1.2465999E-1,4.1818035E-1,7.075472E-1,7.075472E-1,4.7169812E-2,5.6603774E-2,5.6603774E-2,5.9748426E-2,5.6603774E-2,6.918239E-2,6.603774E-2,6.918239E-2,2.0440252E-1,2.1069182E-1,2.1069182E-1,2.0440252E-1,1.4240058E-1,1.2884825E-1,1.2465999E-1,1.2465999E-1,2.3394959E-1,2.3067276E-1,1.1949685E-1,1.2578617E-1,1.509434E-1,1.4779875E-1,1.2465999E-1,3.94E2,3.9308175E-1,3.6477986E-1,3.6477986E-1,2.704E3,1.2465999E-1,2.2112545E-1,4.4791457E-1,4.1818035E-1,-2.9806818E-3,-2.2448418E-3,-1.966496E-3,-1.1690067E-3,-9.231101E-4,-9.899761E-5,2.498754E-4,1.0222882E-3,-4.719668E-3,-4.133438E-3,-3.7887667E-3,-2.9781924E-3,-2.8506794E-3,-2.0312206E-3,-1.805588E-3,-9.779161E-4,5.482898E-4,1.6829625E-3,2.1163987E-3,3.3935376E-3,-1.4053303E-3,-2.1217584E-4,-6.6641485E-5,1.1681885E-3,4.5872065E-3,6.158397E-3,2.0909067E-3,3.5485767E-3,7.974518E-3,5.778588E-3,1.15469955E-2,8.47834E-3,1.3177666E-3,2.860463E-3,3.1644402E-3,4.7910507E-3,-7.0103526E-4,1.420036E-3,9.66997E-4,3.1502896E-3,5.0227656E-3,7.4266265E-3,2.8603773E-3,5.3006583E-3,7.0996657E-3,4.8630848E-3,7.5324364E-3,1.1580785E-2,6.7388527E-3,9.13585E-3,4.2273765E-3,6.2692203E-3,8.62043E-3,1.1003035E-2,1.2784469E-2,1.6807359E-2,1.1939007E-2,9.483988E-3,1.3088696E-2,1.5640644E-2,1.4238375E-2,1.841587E-2,1.7953625E-2,2.2205276E-2],"split_indices":[0,1,1,4,1,0,1,0,0,4,1,4,0,0,0,0,0,0,0,0,0,4,1,1,0,4,0,4,0,1,1,1,1,1,1,1,1,1,1,1,1,1,1,0,0,4,4,0,0,1,1,1,1,4,2,1,1,1,3,4,0,0,0,0,0,0,0,0,0,0,0,0,0,0,0,0,0,0,0,0,0,0,0,0,0,0,0,0,0,0,0,0,0,0,0,0,0,0,0,0,0,0,0,0,0,0,0,0,0,0,0,0,0,0,0,0,0,0,0,0,0,0,0,0,0,0,0],"split_type":[0,0,0,0,0,0,0,0,0,0,0,0,0,0,0,0,0,0,0,0,0,0,0,0,0,0,0,0,0,0,0,0,0,0,0,0,0,0,0,0,0,0,0,0,0,0,0,0,0,0,0,0,0,0,0,0,0,0,0,0,0,0,0,0,0,0,0,0,0,0,0,0,0,0,0,0,0,0,0,0,0,0,0,0,0,0,0,0,0,0,0,0,0,0,0,0,0,0,0,0,0,0,0,0,0,0,0,0,0,0,0,0,0,0,0,0,0,0,0,0,0,0,0,0,0,0,0],"sum_hessian":[4.558508E6,3.275363E6,1.283145E6,2.962927E6,3.12436E5,1.148686E6,1.34459E5,1.801286E6,1.161641E6,2.43094E5,6.9342E4,7.78484E5,3.70202E5,9.0351E4,4.4108E4,8.33425E5,9.67861E5,5.86362E5,5.75279E5,1.44173E5,9.8921E4,4.5659E4,2.3683E4,4.86668E5,2.91816E5,2.08748E5,1.61454E5,6.1812E4,2.8539E4,2.6245E4,1.7863E4,2.83653E5,5.49772E5,5.43523E5,4.24338E5,1.78533E5,4.07829E5,3.39921E5,2.35358E5,4.2201E4,1.01972E5,3.8932E4,5.9989E4,3.0046E4,1.5613E4,1.9488E4,4.195E3,3.71265E5,1.15403E5,1.63195E5,1.28621E5,1.23992E5,8.4756E4,1.5051E5,1.0944E4,4.2786E4,1.9026E4,1.9282E4,9.257E3,1.7194E4,9.051E3,9.533E3,8.33E3,1.50633E5,1.3302E5,3.74544E5,1.75228E5,3.49505E5,1.94018E5,2.8601E5,1.38328E5,1.08065E5,7.0468E4,3.05832E5,1.01997E5,2.45015E5,9.4906E4,1.72595E5,6.2763E4,2.8861E4,1.334E4,6.0222E4,4.175E4,2.9906E4,9.026E3,3.4725E4,2.5264E4,1.7907E4,1.2139E4,6.006E3,9.607E3,1.3109E4,6.379E3,3.138E3,1.057E3,2.05041E5,1.66224E5,6.9865E4,4.5538E4,1.34886E5,2.8309E4,1.14856E5,1.3765E4,1.13358E5,1.0634E4,7.7521E4,7.235E3,1.16914E5,3.3596E4,2.243E3,8.701E3,2.7758E4,1.5028E4,1.0183E4,8.843E3,1.0644E4,8.638E3,8.342E3,9.15E2,1.1471E4,5.723E3,2.993E3,6.058E3,7.359E3,2.174E3,6.128E3,2.202E3],"tree_param":{"num_deleted":"0","num_feature":"5","num_nodes":"127","size_leaf_vector":"1"}},{"base_weights":[4.4571E-7,-1.07387835E-2,3.9209522E-2,-1.4466905E-2,2.516708E-2,3.12672E-2,9.340313E-2,-2.151648E-2,-2.7371568E-3,1.5320159E-2,5.806119E-2,2.126742E-2,5.456123E-2,7.599729E-2,1.3382041E-1,-1.4586459E-2,-3.221993E-2,4.8031486E-3,-1.4835499E-2,2.3497269E-2,2.6102436E-3,4.6699096E-2,8.1818864E-2,2.8547203E-2,1.0765904E-2,4.8589826E-2,6.943014E-2,6.805545E-2,1.0980862E-1,1.183459E-1,1.5577134E-1,-1.9314509E-2,-8.239007E-3,-3.652828E-2,-2.7324425E-2,1.3367636E-3,1.0348773E-2,-1.8843759E-2,-1.0072561E-2,1.5796589E-2,3.317399E-2,-3.686537E-3,1.3603583E-2,5.356313E-2,3.318933E-2,7.23297E-2,1.0073872E-1,2.282917E-2,3.706023E-2,4.697191E-3,2.0344652E-2,5.3633682E-2,3.461835E-2,6.5014645E-2,9.583232E-2,6.0021542E-2,8.124235E-2,1.1719361E-1,8.817778E-2,1.1140157E-1,1.5854868E-1,1.450945E-1,1.8657526E-1,-2.137666E-3,-1.2284251E-3,-1.172426E-3,-4.714819E-4,-4.273774E-3,-3.4622147E-3,-2.961067E-3,-2.1836213E-3,4.4345575E-6,1.1234314E-3,7.799241E-4,1.6570528E-3,-2.1064829E-3,-1.3242062E-3,-1.2580163E-3,-3.6927583E-4,1.1300467E-3,2.5458934E-3,2.8229386E-3,4.15114E-3,-8.530011E-4,4.2397293E-4,8.182027E-4,2.17372E-3,4.2714183E-3,5.8822525E-3,2.457124E-3,3.936652E-3,7.855826E-3,5.975948E-3,1.0820921E-2,8.249613E-3,1.8478938E-3,3.1440672E-3,3.276094E-3,4.808647E-3,1.0868602E-4,1.3254068E-3,1.698065E-3,2.9108215E-3,5.065441E-3,6.3396357E-3,3.105031E-3,4.401402E-3,6.0936827E-3,8.165539E-3,6.500409E-3,1.0330631E-2,6.614824E-3,4.6419837E-3,8.85255E-3,6.4400597E-3,1.0805372E-2,1.3316902E-2,7.5466456E-3,9.585203E-3,9.876847E-3,1.2210573E-2,1.6684743E-2,1.3393271E-2,1.5280709E-2,1.2901758E-2,1.9911243E-2,1.5663715E-2],"categories":[],"categories_nodes":[],"categories_segments":[],"categories_sizes":[],"default_left":[0,0,0,0,0,0,0,0,0,0,0,0,0,0,0,0,0,0,0,0,0,0,0,0,0,0,0,0,0,0,0,0,0,0,0,0,0,0,0,0,0,0,0,0,0,0,0,0,0,0,0,0,0,0,0,0,0,0,0,0,0,0,0,0,0,0,0,0,0,0,0,0,0,0,0,0,0,0,0,0,0,0,0,0,0,0,0,0,0,0,0,0,0,0,0,0,0,0,0,0,0,0,0,0,0,0,0,0,0,0,0,0,0,0,0,0,0,0,0,0,0,0,0,0,0,0,0],"id":6,"left_children":[1,3,5,7,9,11,13,15,17,19,21,23,25,27,29,31,33,35,37,39,41,43,45,47,49,51,53,55,57,59,61,63,65,67,69,71,73,75,77,79,81,83,85,87,89,91,93,95,97,99,101,103,105,107,109,111,113,115,117,119,121,123,125,-1,-1,-1,-1,-1,-1,-1,-1,-1,-1,-1,-1,-1,-1,-1,-1,-1,-1,-1,-1,-1,-1,-1,-1,-1,-1,-1,-1,-1,-1,-1,-1,-1,-1,-1,-1,-1,-1,-1,-1,-1,-1,-1,-1,-1,-1,-1,-1,-1,-1,-1,-1,-1,-1,-1,-1,-1,-1,-1,-1,-1,-1,-1,-1],"loss_changes":[1.9194758E3,4.7900992E2,4.2185938E2,2.6806366E2,1.0902513E2,1.991195E2,8.812317E1,1.5019385E2,1.1101585E2,2.6923313E1,2.0928986E1,4.5722595E1,2.2792847E1,2.3507172E1,1.2790955E1,3.6886047E1,1.6783203E1,1.4411577E1,8.920074E0,1.174601E1,7.0204725E0,4.863014E0,4.4966736E0,1.719336E1,1.4233898E1,1.2907196E1,8.569763E0,7.5081177E0,2.6501923E0,6.158386E0,5.0999756E0,1.02117E1,6.4445343E0,5.008362E0,4.6733704E0,5.9012656E0,4.5740433E0,3.1564941E0,3.415928E0,3.8132324E0,2.8785782E0,2.4756193E0,1.6285396E0,1.9822845E0,9.4007874E-1,1.3036804E0,1.1327057E0,7.91523E0,6.7263336E0,4.630747E0,2.7991943E0,3.911499E0,1.6276741E0,4.2719116E0,2.4213486E0,3.6696014E0,3.2871552E0,1.7980804E0,4.066658E-1,2.5392609E0,6.42807E-1,1.4162598E0,1.4735565E0,0E0,0E0,0E0,0E0,0E0,0E0,0E0,0E0,0E0,0E0,0E0,0E0,0E0,0E0,0E0,0E0,0E0,0E0,0E0,0E0,0E0,0E0,0E0,0E0,0E0,0E0,0E0,0E0,0E0,0E0,0E0,0E0,0E0,0E0,0E0,0E0,0E0,0E0,0E0,0E0,0E0,0E0,0E0,0E0,0E0,0E0,0E0,0E0,0E0,0E0,0E0,0E0,0E0,0E0,0E0,0E0,0E0,0E0,0E0,0E0,0E0,0E0,0E0,0E0],"parents":[2147483647,0,0,1,1,2,2,3,3,4,4,5,5,6,6,7,7,8,8,9,9,10,10,11,11,12,12,13,13,14,14,15,15,16,16,17,17,18,18,19,19,20,20,21,21,22,22,23,23,24,24,25,25,26,26,27,27,28,28,29,29,30,30,31,31,32,32,33,33,34,34,35,35,36,36,37,37,38,38,39,39,40,40,41,41,42,42,43,43,44,44,45,45,46,46,47,47,48,48,49,49,50,50,51,51,52,52,53,53,54,54,55,55,56,56,57,57,58,58,59,59,60,60,61,61,62,62],"right_children":[2,4,6,8,10,12,14,16,18,20,22,24,26,28,30,32,34,36,38,40,42,44,46,48,50,52,54,56,58,60,62,64,66,68,70,72,74,76,78,80,82,84,86,88,90,92,94,96,98,100,102,104,106,108,110,112,114,116,118,120,122,124,126,-1,-1,-1,-1,-1,-1,-1,-1,-1,-1,-1,-1,-1,-1,-1,-1,-1,-1,-1,-1,-1,-1,-1,-1,-1,-1,-1,-1,-1,-1,-1,-1,-1,-1,-1,-1,-1,-1,-1,-1,-1,-1,-1,-1,-1,-1,-1,-1,-1,-1,-1,-1,-1,-1,-1,-1,-1,-1,-1,-1,-1,-1,-1,-1],"split_conditions":[2.0805858E-1,1.509434E-1,2.2955975E-1,1.1962458E-1,3.207547E-1,3.5183463E-1,5.188679E-1,1.2465999E-1,1.2465999E-1,1.2465999E-1,4.654088E-1,1.2465999E-1,4.233181E-1,3.6769286E-1,7.075472E-1,7.775395E-2,8.022169E-2,1.6942433E-1,1.6092885E-1,1.3617055E-1,1.4240058E-1,1.2465999E-1,5.91195E-1,2.7104655E-1,2.7820703E-1,1.2465999E-1,4.7392693E-1,3.6477986E-1,1.2465999E-1,3.9621344E-1,3.5183463E-1,5.9748426E-2,5.0314464E-2,5.218658E-2,6.603774E-2,9.4339624E-2,6.603774E-2,6.918239E-2,6.918239E-2,2.2955975E-1,2.2955975E-1,2.1069182E-1,2.2012578E-1,1.2783688E-1,1.4025648E-1,1.2465999E-1,1.2465999E-1,7.232705E-2,8.176101E-2,7.54717E-2,8.176101E-2,7.54717E-2,7.54717E-2,1.1320755E-1,3.94E2,1.2465999E-1,1.2465999E-1,3.6477986E-1,4.075812E-1,2.6170152E-1,1.2465999E-1,1.2465999E-1,1.2465999E-1,-2.137666E-3,-1.2284251E-3,-1.172426E-3,-4.714819E-4,-4.273774E-3,-3.4622147E-3,-2.961067E-3,-2.1836213E-3,4.4345575E-6,1.1234314E-3,7.799241E-4,1.6570528E-3,-2.1064829E-3,-1.3242062E-3,-1.2580163E-3,-3.6927583E-4,1.1300467E-3,2.5458934E-3,2.8229386E-3,4.15114E-3,-8.530011E-4,4.2397293E-4,8.182027E-4,2.17372E-3,4.2714183E-3,5.8822525E-3,2.457124E-3,3.936652E-3,7.855826E-3,5.975948E-3,1.0820921E-2,8.249613E-3,1.8478938E-3,3.1440672E-3,3.276094E-3,4.808647E-3,1.0868602E-4,1.3254068E-3,1.698065E-3,2.9108215E-3,5.065441E-3,6.3396357E-3,3.105031E-3,4.401402E-3,6.0936827E-3,8.165539E-3,6.500409E-3,1.0330631E-2,6.614824E-3,4.6419837E-3,8.85255E-3,6.4400597E-3,1.0805372E-2,1.3316902E-2,7.5466456E-3,9.585203E-3,9.876847E-3,1.2210573E-2,1.6684743E-2,1.3393271E-2,1.5280709E-2,1.2901758E-2,1.9911243E-2,1.5663715E-2],"split_indices":[0,1,1,0,1,0,1,4,4,4,1,4,0,0,1,0,0,0,0,0,0,4,1,0,0,4,0,1,4,0,0,1,1,0,1,1,1,1,1,1,1,1,1,0,0,4,4,1,1,1,1,1,1,1,2,4,4,1,0,0,4,4,4,0,0,0,0,0,0,0,0,0,0,0,0,0,0,0,0,0,0,0,0,0,0,0,0,0,0,0,0,0,0,0,0,0,0,0,0,0,0,0,0,0,0,0,0,0,0,0,0,0,0,0,0,0,0,0,0,0,0,0,0,0,0,0,0],"split_type":[0,0,0,0,0,0,0,0,0,0,0,0,0,0,0,0,0,0,0,0,0,0,0,0,0,0,0,0,0,0,0,0,0,0,0,0,0,0,0,0,0,0,0,0,0,0,0,0,0,0,0,0,0,0,0,0,0,0,0,0,0,0,0,0,0,0,0,0,0,0,0,0,0,0,0,0,0,0,0,0,0,0,0,0,0,0,0,0,0,0,0,0,0,0,0,0,0,0,0,0,0,0,0,0,0,0,0,0,0,0,0,0,0,0,0,0,0,0,0,0,0,0,0,0,0,0,0],"sum_hessian":[4.558508E6,3.578398E6,9.8011E5,3.241801E6,3.36597E5,8.54832E5,1.25278E5,2.02486E6,1.216941E6,2.59051E5,7.7546E4,5.98085E5,2.56747E5,8.7569E4,3.7709E4,1.229084E6,7.95776E5,7.49694E5,4.67247E5,1.57634E5,1.01417E5,5.246E4,2.5086E4,3.53224E5,2.44861E5,1.83184E5,7.3563E4,7.0915E4,1.6654E4,2.2121E4,1.5588E4,7.04396E5,5.24688E5,4.23268E5,3.72508E5,4.61332E5,2.88362E5,2.53723E5,2.13524E5,8.7781E4,6.9853E4,6.4483E4,3.6934E4,3.4784E4,1.7676E4,1.671E4,8.376E3,2.11301E5,1.41923E5,1.49895E5,9.4966E4,1.34592E5,4.8592E4,6.3026E4,1.0537E4,4.4071E4,2.6844E4,1.2412E4,4.242E3,1.8866E4,3.255E3,1.158E4,4.008E3,5.44638E5,1.59758E5,2.638E5,2.60888E5,9.9409E4,3.23859E5,2.62961E5,1.09547E5,4.0805E5,5.3282E4,2.04546E5,8.3816E4,1.81683E5,7.204E4,1.53277E5,6.0247E4,5.9907E4,2.7874E4,4.3851E4,2.6002E4,4.0025E4,2.4458E4,2.2163E4,1.4771E4,1.136E4,2.3424E4,7.382E3,1.0294E4,1.117E4,5.54E3,5.939E3,2.437E3,1.40386E5,7.0915E4,1.02112E5,3.9811E4,1.05418E5,4.4477E4,6.8626E4,2.634E4,1.03127E5,3.1465E4,3.5221E4,1.3371E4,5.0625E4,1.2401E4,2.058E3,8.479E3,3.0382E4,1.3689E4,1.8737E4,8.107E3,7.9E3,4.512E3,1.601E3,2.641E3,8.658E3,1.0208E4,2.43E3,8.25E2,7.82E3,3.76E3,2.821E3,1.187E3],"tree_param":{"num_deleted":"0","num_feature":"5","num_nodes":"127","size_leaf_vector":"1"}},{"base_weights":[4.6561632E-7,-9.445621E-3,3.614762E-2,-1.3142076E-2,2.0775786E-2,2.8758053E-2,8.411686E-2,-1.9994823E-2,-3.15895E-3,1.1828443E-2,4.9821537E-2,2.0381646E-2,5.1014706E-2,6.605498E-2,1.1589976E-1,-1.3729864E-2,-2.8991584E-2,2.8236369E-3,-1.3963789E-2,1.9432753E-2,4.0374248E-4,4.0189352E-2,7.403037E-2,2.6994012E-2,1.1052263E-2,4.644941E-2,6.465265E-2,5.9172124E-2,9.7575545E-2,1.0331694E-1,1.4100167E-1,-1.7315932E-2,-6.981133E-3,-3.226402E-2,-2.2873582E-2,-2.7614997E-3,7.247626E-3,-1.8555168E-2,-9.671048E-3,1.1965153E-2,2.7584035E-2,-5.6645973E-3,9.906477E-3,4.6363536E-2,2.8107943E-2,6.517414E-2,9.1015965E-2,2.2691106E-2,3.7606746E-2,6.186491E-3,2.2532236E-2,5.0261244E-2,3.376394E-2,5.9792288E-2,8.599365E-2,4.9569976E-2,6.765995E-2,1.03457205E-1,7.868073E-2,9.571374E-2,1.328143E-1,1.339447E-1,1.8021454E-1,-2.3355326E-3,-1.5209814E-3,-8.916626E-4,-8.6559856E-5,-3.7101575E-3,-3.0242014E-3,-2.5427898E-3,-1.8338738E-3,-5.9643487E-4,6.467468E-5,4.0739286E-4,1.0525045E-3,-2.1335194E-3,-1.5437618E-3,-1.1776731E-3,-4.6523588E-4,7.984081E-4,1.8699268E-3,2.3214356E-3,3.4536757E-3,-8.859287E-4,2.3012723E-4,5.129945E-4,1.7130114E-3,4.172757E-3,5.70323E-3,1.968876E-3,3.3249035E-3,7.082898E-3,5.3818882E-3,9.780808E-3,7.4744932E-3,1.941535E-3,3.0962683E-3,3.4177718E-3,4.653855E-3,2.8167726E-4,1.3380214E-3,1.9240171E-3,2.8975157E-3,4.73986E-3,5.923992E-3,3.0691195E-3,4.3182145E-3,6.409978E-3,4.359677E-3,8.264408E-3,1.5110785E-2,5.508903E-3,3.682995E-3,7.3881596E-3,5.4154736E-3,9.997043E-3,1.3894518E-2,7.1050464E-3,8.611986E-3,1.0297753E-2,7.98355E-3,1.2161403E-2,1.4880905E-2,1.2212268E-2,1.44329015E-2,1.755348E-2,2.4980916E-2],"categories":[],"categories_nodes":[],"categories_segments":[],"categories_sizes":[],"default_left":[0,0,0,0,0,0,0,0,0,0,0,0,0,0,0,0,0,0,0,0,0,0,0,0,0,0,0,0,0,0,0,0,0,0,0,0,0,0,0,0,0,0,0,0,0,0,0,0,0,0,0,0,0,0,0,0,0,0,0,0,0,0,0,0,0,0,0,0,0,0,0,0,0,0,0,0,0,0,0,0,0,0,0,0,0,0,0,0,0,0,0,0,0,0,0,0,0,0,0,0,0,0,0,0,0,0,0,0,0,0,0,0,0,0,0,0,0,0,0,0,0,0,0,0,0,0,0],"id":7,"left_children":[1,3,5,7,9,11,13,15,17,19,21,23,25,27,29,31,33,35,37,39,41,43,45,47,49,51,53,55,57,59,61,63,65,67,69,71,73,75,77,79,81,83,85,87,89,91,93,95,97,99,101,103,105,107,109,111,113,115,117,119,121,123,125,-1,-1,-1,-1,-1,-1,-1,-1,-1,-1,-1,-1,-1,-1,-1,-1,-1,-1,-1,-1,-1,-1,-1,-1,-1,-1,-1,-1,-1,-1,-1,-1,-1,-1,-1,-1,-1,-1,-1,-1,-1,-1,-1,-1,-1,-1,-1,-1,-1,-1,-1,-1,-1,-1,-1,-1,-1,-1,-1,-1,-1,-1,-1,-1],"loss_changes":[1.5564993E3,4.0373557E2,3.3477502E2,2.2029974E2,1.0235953E2,1.5256885E2,7.2362854E1,1.07625854E2,8.47266E1,2.6160038E1,2.162622E1,3.6679886E1,1.39296875E1,1.743451E1,1.4413879E1,2.7241806E1,1.5692383E1,2.0844673E1,9.206329E0,1.100415E1,6.9391003E0,4.9484634E0,3.965393E0,1.5889252E1,1.3776352E1,8.105469E0,5.815918E0,5.3743286E0,1.5928345E0,6.812439E0,4.195923E0,9.349258E0,4.6231804E0,4.9941406E0,3.1636658E0,4.0703654E0,4.8964176E0,1.9558029E0,2.551077E0,2.5293055E0,2.6251907E0,1.8688805E0,1.6180086E0,2.1695557E0,9.7085E-1,1.1106415E0,9.922943E-1,6.707947E0,3.0728302E0,4.198836E0,1.556633E0,3.31073E0,1.1198578E0,3.1862335E0,2.2575302E0,2.1750717E0,2.9386444E0,1.3451309E0,1.8823624E-1,2.7828064E0,1.0986938E0,1.569458E0,7.127228E-1,0E0,0E0,0E0,0E0,0E0,0E0,0E0,0E0,0E0,0E0,0E0,0E0,0E0,0E0,0E0,0E0,0E0,0E0,0E0,0E0,0E0,0E0,0E0,0E0,0E0,0E0,0E0,0E0,0E0,0E0,0E0,0E0,0E0,0E0,0E0,0E0,0E0,0E0,0E0,0E0,0E0,0E0,0E0,0E0,0E0,0E0,0E0,0E0,0E0,0E0,0E0,0E0,0E0,0E0,0E0,0E0,0E0,0E0,0E0,0E0,0E0,0E0,0E0,0E0],"parents":[2147483647,0,0,1,1,2,2,3,3,4,4,5,5,6,6,7,7,8,8,9,9,10,10,11,11,12,12,13,13,14,14,15,15,16,16,17,17,18,18,19,19,20,20,21,21,22,22,23,23,24,24,25,25,26,26,27,27,28,28,29,29,30,30,31,31,32,32,33,33,34,34,35,35,36,36,37,37,38,38,39,39,40,40,41,41,42,42,43,43,44,44,45,45,46,46,47,47,48,48,49,49,50,50,51,51,52,52,53,53,54,54,55,55,56,56,57,57,58,58,59,59,60,60,61,61,62,62],"right_children":[2,4,6,8,10,12,14,16,18,20,22,24,26,28,30,32,34,36,38,40,42,44,46,48,50,52,54,56,58,60,62,64,66,68,70,72,74,76,78,80,82,84,86,88,90,92,94,96,98,100,102,104,106,108,110,112,114,116,118,120,122,124,126,-1,-1,-1,-1,-1,-1,-1,-1,-1,-1,-1,-1,-1,-1,-1,-1,-1,-1,-1,-1,-1,-1,-1,-1,-1,-1,-1,-1,-1,-1,-1,-1,-1,-1,-1,-1,-1,-1,-1,-1,-1,-1,-1,-1,-1,-1,-1,-1,-1,-1,-1,-1,-1,-1,-1,-1,-1,-1,-1,-1,-1,-1,-1,-1],"split_conditions":[2.1182087E-1,1.3836478E-1,2.2012578E-1,1.15E2,3.018868E-1,3.6769286E-1,4.654088E-1,1.2465999E-1,1.2465999E-1,1.2465999E-1,4.654088E-1,1.2465999E-1,4.298313E-1,3.831061E-1,7.075472E-1,8.082851E-2,8.827218E-2,1.5150289E-1,1.56762E-1,1.3103281E-1,1.3827421E-1,1.2465999E-1,5.91195E-1,2.9240665E-1,3.0037624E-1,1.2465999E-1,4.7392693E-1,2.504551E-1,1.2465999E-1,3.6769286E-1,4.1312352E-1,4.061653E-2,6.603774E-2,5.7324324E-2,6.2893085E-2,5.0314464E-2,5.345912E-2,5.6603774E-2,6.603774E-2,2.0440252E-1,2.1069182E-1,2.1069182E-1,2.0440252E-1,3.9308175E-1,1.3617055E-1,1.2465999E-1,1.2465999E-1,7.861635E-2,8.176101E-2,7.232705E-2,7.232705E-2,7.54717E-2,7.861635E-2,1.2465999E-1,4.983E3,1.2465999E-1,1.2465999E-1,3.94E2,4.3735588E-1,1.2465999E-1,4.7392693E-1,2.7820703E-1,2.704E3,-2.3355326E-3,-1.5209814E-3,-8.916626E-4,-8.6559856E-5,-3.7101575E-3,-3.0242014E-3,-2.5427898E-3,-1.8338738E-3,-5.9643487E-4,6.467468E-5,4.0739286E-4,1.0525045E-3,-2.1335194E-3,-1.5437618E-3,-1.1776731E-3,-4.6523588E-4,7.984081E-4,1.8699268E-3,2.3214356E-3,3.4536757E-3,-8.859287E-4,2.3012723E-4,5.129945E-4,1.7130114E-3,4.172757E-3,5.70323E-3,1.968876E-3,3.3249035E-3,7.082898E-3,5.3818882E-3,9.780808E-3,7.4744932E-3,1.941535E-3,3.0962683E-3,3.4177718E-3,4.653855E-3,2.8167726E-4,1.3380214E-3,1.9240171E-3,2.8975157E-3,4.73986E-3,5.923992E-3,3.0691195E-3,4.3182145E-3,6.409978E-3,4.359677E-3,8.264408E-3,1.5110785E-2,5.508903E-3,3.682995E-3,7.3881596E-3,5.4154736E-3,9.997043E-3,1.3894518E-2,7.1050464E-3,8.611986E-3,1.0297753E-2,7.98355E-3,1.2161403E-2,1.4880905E-2,1.2212268E-2,1.44329015E-2,1.755348E-2,2.4980916E-2],"split_indices":[0,1,1,2,1,0,1,4,4,4,1,4,0,0,1,0,0,0,0,0,0,4,1,0,0,4,0,0,4,0,0,0,1,0,1,1,1,1,1,1,1,1,1,1,0,4,4,1,1,1,1,1,1,4,3,4,4,2,0,4,0,0,3,0,0,0,0,0,0,0,0,0,0,0,0,0,0,0,0,0,0,0,0,0,0,0,0,0,0,0,0,0,0,0,0,0,0,0,0,0,0,0,0,0,0,0,0,0,0,0,0,0,0,0,0,0,0,0,0,0,0,0,0,0,0,0,0],"split_type":[0,0,0,0,0,0,0,0,0,0,0,0,0,0,0,0,0,0,0,0,0,0,0,0,0,0,0,0,0,0,0,0,0,0,0,0,0,0,0,0,0,0,0,0,0,0,0,0,0,0,0,0,0,0,0,0,0,0,0,0,0,0,0,0,0,0,0,0,0,0,0,0,0,0,0,0,0,0,0,0,0,0,0,0,0,0,0,0,0,0,0,0,0,0,0,0,0,0,0,0,0,0,0,0,0,0,0,0,0,0,0,0,0,0,0,0,0,0,0,0,0,0,0,0,0,0,0],"sum_hessian":[4.558508E6,3.614069E6,9.44439E5,3.220199E6,3.9387E5,8.18372E5,1.26067E5,1.909473E6,1.310726E6,3.01115E5,9.2755E4,5.94595E5,2.23777E5,8.0387E4,4.568E4,1.125633E6,7.8384E5,8.43619E5,4.67107E5,1.80784E5,1.20331E5,6.6356E4,2.6399E4,3.47966E5,2.46629E5,1.67658E5,5.6119E4,6.5982E4,1.4405E4,3.0431E4,1.5249E4,7.35049E5,3.90584E5,5.1068E5,2.7316E5,3.72876E5,4.70743E5,2.25701E5,2.41406E5,9.435E4,8.6434E4,7.3436E4,4.6895E4,4.3912E4,2.2444E4,1.7355E4,9.044E3,2.47586E5,1.0038E5,1.73214E5,7.3415E4,1.28917E5,3.8741E4,4.5712E4,1.0407E4,3.0962E4,3.502E4,1.0982E4,3.423E3,2.4198E4,6.233E3,1.2927E4,2.322E3,1.90053E5,5.44996E5,2.96686E5,9.3898E4,1.50529E5,3.60151E5,1.74734E5,9.8426E4,1.9223E5,1.80646E5,2.39157E5,2.31586E5,1.19306E5,1.06395E5,1.70055E5,7.1351E4,5.9297E4,3.5053E4,5.3079E4,3.3355E4,5.2415E4,2.1021E4,2.823E4,1.8665E4,3.0614E4,1.3298E4,8.511E3,1.3933E4,1.1582E4,5.773E3,6.377E3,2.667E3,1.77353E5,7.0233E4,7.2537E4,2.7843E4,1.1796E5,5.5254E4,4.8591E4,2.4824E4,9.7756E4,3.1161E4,2.9214E4,9.527E3,3.6106E4,9.606E3,9.9E3,5.07E2,2.1601E4,9.361E3,2.3972E4,1.1048E4,1.0003E4,9.79E2,1.695E3,1.728E3,1.6599E4,7.599E3,3.671E3,2.562E3,6.051E3,6.876E3,2.179E3,1.43E2],"tree_param":{"num_deleted":"0","num_feature":"5","num_nodes":"127","size_leaf_vector":"1"}},{"base_weights":[4.8132034E-7,-1.0847288E-2,2.5664795E-2,-1.3797907E-2,1.323641E-2,2.0926498E-2,8.110309E-2,-8.018722E-3,-2.2773044E-2,6.481227E-3,3.7977558E-2,1.2581464E-2,4.130806E-2,6.757617E-2,1.11918084E-1,-1.4757073E-2,-1.2769765E-3,-2.8783232E-2,-1.6929645E-2,1.3479088E-2,-3.2980032E-3,3.0569756E-2,5.614477E-2,1.8339593E-2,2.892306E-3,3.421611E-2,5.386172E-2,5.61568E-2,8.64155E-2,9.596335E-2,1.2940484E-1,-1.8827068E-2,-1.1755882E-2,-4.500928E-3,3.049919E-3,-3.2826405E-2,-2.6735405E-2,-2.0638451E-2,-1.3323196E-2,4.94854E-3,1.7215751E-2,-1.008555E-2,1.3401841E-3,3.6144685E-2,1.994006E-2,4.8514653E-2,6.7952566E-2,1.5506288E-2,3.7845373E-2,6.985773E-4,2.3399098E-2,4.028444E-2,2.4177453E-2,5.0230622E-2,7.755745E-2,6.2000003E-2,4.3643307E-2,7.98308E-2,1.0755284E-1,8.570474E-2,1.0649539E-1,1.2147832E-1,1.5341033E-1,-2.2535592E-3,-1.6300954E-3,-1.5794162E-3,-9.6977747E-4,-6.9233956E-4,-1.16642404E-4,5.439262E-4,-2.8200637E-5,-3.7363481E-3,-3.1493807E-3,-2.8783416E-3,-2.3415242E-3,-2.2590733E-3,-1.7468119E-3,-1.5893985E-3,-1.0836235E-3,1.1907648E-4,7.227647E-4,1.4009262E-3,2.2176895E-3,-1.1673045E-3,-4.544969E-4,-1.5526556E-4,6.3867087E-4,2.8002234E-3,4.046667E-3,1.4093841E-3,2.432924E-3,5.3730025E-3,3.7658957E-3,7.341217E-3,5.433831E-3,1.112162E-3,2.3352746E-3,3.2550588E-3,4.662243E-3,-4.552231E-4,8.2370517E-4,1.8589888E-3,3.3349954E-3,3.8263076E-3,5.951974E-3,2.2231622E-3,4.5527015E-3,4.798231E-3,7.538567E-3,7.464345E-3,9.948744E-3,5.640329E-3,7.4349716E-3,3.7589313E-3,5.572634E-3,8.631129E-3,6.544493E-3,1.0371438E-2,1.4165713E-2,9.196884E-3,7.337949E-3,1.1514242E-2,9.319366E-3,1.2888837E-2,1.0441698E-2,1.6248405E-2,1.2832807E-2],"categories":[],"categories_nodes":[],"categories_segments":[],"categories_sizes":[],"default_left":[0,0,0,0,0,0,0,0,0,0,0,0,0,0,0,0,0,0,0,0,0,0,0,0,0,0,0,0,0,0,0,0,0,0,0,0,0,0,0,0,0,0,0,0,0,0,0,0,0,0,0,0,0,0,0,0,0,0,0,0,0,0,0,0,0,0,0,0,0,0,0,0,0,0,0,0,0,0,0,0,0,0,0,0,0,0,0,0,0,0,0,0,0,0,0,0,0,0,0,0,0,0,0,0,0,0,0,0,0,0,0,0,0,0,0,0,0,0,0,0,0,0,0,0,0,0,0],"id":8,"left_children":[1,3,5,7,9,11,13,15,17,19,21,23,25,27,29,31,33,35,37,39,41,43,45,47,49,51,53,55,57,59,61,63,65,67,69,71,73,75,77,79,81,83,85,87,89,91,93,95,97,99,101,103,105,107,109,111,113,115,117,119,121,123,125,-1,-1,-1,-1,-1,-1,-1,-1,-1,-1,-1,-1,-1,-1,-1,-1,-1,-1,-1,-1,-1,-1,-1,-1,-1,-1,-1,-1,-1,-1,-1,-1,-1,-1,-1,-1,-1,-1,-1,-1,-1,-1,-1,-1,-1,-1,-1,-1,-1,-1,-1,-1,-1,-1,-1,-1,-1,-1,-1,-1,-1,-1,-1,-1],"loss_changes":[1.2690918E3,2.2769452E2,3.557599E2,1.4805768E2,5.844797E1,2.1221393E2,4.444342E1,7.88809E1,3.9266174E1,1.8799532E1,1.0092377E1,4.9389023E1,3.2267334E1,1.5938873E1,9.0633545E0,1.0607269E1,1.2108004E1,4.5626526E0,7.582443E0,5.104088E0,3.6073687E0,3.156765E0,1.9539337E0,3.0686356E1,1.4844801E1,1.4108398E1,1.1253967E1,3.3713684E0,3.8839417E0,1.8291321E0,2.9339294E0,3.4524994E0,4.154114E0,4.0176916E0,2.9503582E0,1.1191864E0,2.4871216E0,1.7294388E0,1.8374443E0,4.1773582E-1,1.7710457E0,4.090762E-1,9.937638E-1,1.2288094E0,4.700837E-1,7.4531364E-1,6.2966156E-1,1.668016E1,3.2712708E0,1.1799637E1,1.5254498E0,5.610321E0,3.6241226E0,6.4131775E0,1.1034851E0,2.169838E0,1.0726337E0,1.9827118E0,8.5453796E-1,6.590843E-1,9.5441437E-1,1.4619293E0,8.5491943E-1,0E0,0E0,0E0,0E0,0E0,0E0,0E0,0E0,0E0,0E0,0E0,0E0,0E0,0E0,0E0,0E0,0E0,0E0,0E0,0E0,0E0,0E0,0E0,0E0,0E0,0E0,0E0,0E0,0E0,0E0,0E0,0E0,0E0,0E0,0E0,0E0,0E0,0E0,0E0,0E0,0E0,0E0,0E0,0E0,0E0,0E0,0E0,0E0,0E0,0E0,0E0,0E0,0E0,0E0,0E0,0E0,0E0,0E0,0E0,0E0,0E0,0E0,0E0,0E0],"parents":[2147483647,0,0,1,1,2,2,3,3,4,4,5,5,6,6,7,7,8,8,9,9,10,10,11,11,12,12,13,13,14,14,15,15,16,16,17,17,18,18,19,19,20,20,21,21,22,22,23,23,24,24,25,25,26,26,27,27,28,28,29,29,30,30,31,31,32,32,33,33,34,34,35,35,36,36,37,37,38,38,39,39,40,40,41,41,42,42,43,43,44,44,45,45,46,46,47,47,48,48,49,49,50,50,51,51,52,52,53,53,54,54,55,55,56,56,57,57,58,58,59,59,60,60,61,61,62,62],"right_children":[2,4,6,8,10,12,14,16,18,20,22,24,26,28,30,32,34,36,38,40,42,44,46,48,50,52,54,56,58,60,62,64,66,68,70,72,74,76,78,80,82,84,86,88,90,92,94,96,98,100,102,104,106,108,110,112,114,116,118,120,122,124,126,-1,-1,-1,-1,-1,-1,-1,-1,-1,-1,-1,-1,-1,-1,-1,-1,-1,-1,-1,-1,-1,-1,-1,-1,-1,-1,-1,-1,-1,-1,-1,-1,-1,-1,-1,-1,-1,-1,-1,-1,-1,-1,-1,-1,-1,-1,-1,-1,-1,-1,-1,-1,-1,-1,-1,-1,-1,-1,-1,-1,-1,-1,-1,-1],"split_conditions":[1.7844573E-1,1.2893082E-1,3.207547E-1,1.2465999E-1,2.861635E-1,3.0992353E-1,5.91195E-1,9.239856E-2,9.4016746E-2,1.2465999E-1,4.245283E-1,1.2465999E-1,4.075812E-1,2.678102E-1,2.7820703E-1,5.291476E-2,1.3827421E-1,6.096525E-2,1.2783688E-1,8.908127E-2,1.02593146E-1,1.2465999E-1,5.188679E-1,1.5408805E-1,1.6352202E-1,1.2465999E-1,1.446541E-1,1.2465999E-1,4.298313E-1,7.075472E-1,4.1312352E-1,4.4025157E-2,4.4025157E-2,5.345912E-2,1.2968104E-2,4.5471095E-2,5.9748426E-2,5.9748426E-2,5.6603774E-2,6.7195274E-2,1.981132E-1,1.981132E-1,1.981132E-1,1.1659048E-1,1.2884825E-1,1.2465999E-1,1.2465999E-1,2.4256645E-1,2.3067276E-1,2.4256645E-1,2.370646E-1,1.509434E-1,1.6037735E-1,4.7392693E-1,2.704E3,4.654088E-1,4.654088E-1,1.2465999E-1,2.704E3,1.2465999E-1,3.1075668E-2,1.2465999E-1,1.2465999E-1,-2.2535592E-3,-1.6300954E-3,-1.5794162E-3,-9.6977747E-4,-6.9233956E-4,-1.16642404E-4,5.439262E-4,-2.8200637E-5,-3.7363481E-3,-3.1493807E-3,-2.8783416E-3,-2.3415242E-3,-2.2590733E-3,-1.7468119E-3,-1.5893985E-3,-1.0836235E-3,1.1907648E-4,7.227647E-4,1.4009262E-3,2.2176895E-3,-1.1673045E-3,-4.544969E-4,-1.5526556E-4,6.3867087E-4,2.8002234E-3,4.046667E-3,1.4093841E-3,2.432924E-3,5.3730025E-3,3.7658957E-3,7.341217E-3,5.433831E-3,1.112162E-3,2.3352746E-3,3.2550588E-3,4.662243E-3,-4.552231E-4,8.2370517E-4,1.8589888E-3,3.3349954E-3,3.8263076E-3,5.951974E-3,2.2231622E-3,4.5527015E-3,4.798231E-3,7.538567E-3,7.464345E-3,9.948744E-3,5.640329E-3,7.4349716E-3,3.7589313E-3,5.572634E-3,8.631129E-3,6.544493E-3,1.0371438E-2,1.4165713E-2,9.196884E-3,7.337949E-3,1.1514242E-2,9.319366E-3,1.2888837E-2,1.0441698E-2,1.6248405E-2,1.2832807E-2],"split_indices":[0,1,1,4,1,0,1,0,0,4,1,4,0,0,0,0,0,0,0,0,0,4,1,1,1,4,1,4,0,1,0,1,1,1,4,0,1,1,1,0,1,1,1,0,0,4,4,0,0,0,0,1,1,0,3,1,1,4,3,4,4,4,4,0,0,0,0,0,0,0,0,0,0,0,0,0,0,0,0,0,0,0,0,0,0,0,0,0,0,0,0,0,0,0,0,0,0,0,0,0,0,0,0,0,0,0,0,0,0,0,0,0,0,0,0,0,0,0,0,0,0,0,0,0,0,0,0],"split_type":[0,0,0,0,0,0,0,0,0,0,0,0,0,0,0,0,0,0,0,0,0,0,0,0,0,0,0,0,0,0,0,0,0,0,0,0,0,0,0,0,0,0,0,0,0,0,0,0,0,0,0,0,0,0,0,0,0,0,0,0,0,0,0,0,0,0,0,0,0,0,0,0,0,0,0,0,0,0,0,0,0,0,0,0,0,0,0,0,0,0,0,0,0,0,0,0,0,0,0,0,0,0,0,0,0,0,0,0,0,0,0,0,0,0,0,0,0,0,0,0,0,0,0,0,0,0,0],"sum_hessian":[4.558508E6,3.204172E6,1.354336E6,2.854458E6,3.49714E5,1.247697E6,1.06639E5,1.736384E6,1.118074E6,2.7471E5,7.5004E4,8.85244E5,3.62453E5,7.411E4,3.2529E4,8.6841E5,8.67974E5,5.51169E5,5.66905E5,1.60126E5,1.14584E5,5.3281E4,2.1723E4,5.5526E5,3.29984E5,2.31612E5,1.30841E5,4.6144E4,2.7966E4,1.7013E4,1.5516E4,3.68573E5,4.99837E5,4.97379E5,3.70595E5,1.85301E5,3.65868E5,2.79484E5,2.87421E5,4.8776E4,1.1135E5,4.6514E4,6.807E4,3.4949E4,1.8332E4,1.3199E4,8.524E3,4.84837E5,7.0423E4,2.98096E5,3.1888E4,1.4435E5,8.7262E4,1.13458E5,1.7383E4,3.1453E4,1.4691E4,2.1327E4,6.639E3,8.623E3,8.39E3,1.1669E4,3.847E3,1.49333E5,2.1924E5,1.6874E5,3.31097E5,2.88087E5,2.09292E5,2.15825E5,1.5477E5,4.2063E4,1.43238E5,2.26281E5,1.39587E5,1.72966E5,1.06518E5,1.41326E5,1.46095E5,1.8415E4,3.0361E4,6.7638E4,4.3712E4,3.6154E4,1.036E4,4.3268E4,2.4802E4,1.2121E4,2.2828E4,7.863E3,1.0469E4,8.913E3,4.286E3,6.081E3,2.443E3,3.11032E5,1.73805E5,4.3928E4,2.6495E4,1.75709E5,1.22387E5,2.15E4,1.0388E4,1.30626E5,1.3724E4,7.9975E4,7.287E3,1.04152E5,9.306E3,1.5348E4,2.035E3,2.1648E4,9.805E3,9.79E3,4.901E3,1.47E4,6.627E3,5.971E3,6.68E2,5.713E3,2.91E3,5.08E3,3.31E3,8.131E3,3.538E3,2.821E3,1.026E3],"tree_param":{"num_deleted":"0","num_feature":"5","num_nodes":"127","size_leaf_vector":"1"}},{"base_weights":[4.820972E-7,-9.949406E-3,2.268354E-2,-1.2697354E-2,1.0681268E-2,1.7454047E-2,6.3588746E-2,-7.509027E-3,-2.0764874E-2,4.6456414E-3,3.2201063E-2,9.527292E-3,3.5115622E-2,5.1426392E-2,9.330503E-2,-1.3398371E-2,-1.4622024E-3,-2.5803693E-2,-1.526867E-2,1.1081799E-2,-4.1056373E-3,2.445522E-2,4.695116E-2,1.4614585E-2,1.0044647E-3,2.7060242E-2,4.4484675E-2,4.343241E-2,7.1897194E-2,7.926898E-2,1.1106213E-1,-1.7915804E-2,-1.1205693E-2,-4.369541E-3,2.180298E-3,-2.9148083E-2,-2.368162E-2,-1.829918E-2,-1.2065645E-2,5.5257757E-3,1.5546708E-2,-1.0277448E-2,-3.0180617E-4,2.951395E-2,1.4979791E-2,4.1496735E-2,6.0620528E-2,1.00783305E-2,2.0030955E-2,-3.5964604E-3,7.043228E-3,3.274928E-2,1.9285925E-2,4.8091054E-2,3.1262394E-2,3.6019806E-2,5.170813E-2,6.4911224E-2,8.776981E-2,7.102434E-2,9.58558E-2,9.926697E-2,1.2515321E-1,-2.1121665E-3,-1.552683E-3,-1.3974083E-3,-9.019525E-4,-8.262827E-4,-2.6170386E-4,3.429013E-4,-3.3526385E-4,-3.1102225E-3,-2.620109E-3,-2.6344897E-3,-2.1807624E-3,-2.1687965E-3,-1.6903104E-3,-1.4823215E-3,-1.0305847E-3,2.3180885E-4,8.4422727E-4,1.3450147E-3,2.043883E-3,-1.1659821E-3,-6.4509467E-4,-2.615222E-4,4.1021066E-4,2.6010748E-3,3.731979E-3,1.0619501E-3,1.8581249E-3,4.6225674E-3,3.1853006E-3,6.545992E-3,4.8439237E-3,6.90618E-4,1.8327184E-3,1.6436933E-3,2.6746052E-3,-6.4504705E-4,6.223439E-4,3.7097427E-4,1.362352E-3,2.9629942E-3,3.9527193E-3,1.5943032E-3,2.552478E-3,4.5329533E-3,6.3830563E-3,2.7791269E-3,4.2768917E-3,4.212591E-3,2.8865E-3,5.696264E-3,4.00695E-3,5.9473016E-3,7.832087E-3,8.440884E-3,1.1332436E-2,7.6836185E-3,5.959316E-3,1.0361186E-2,8.38641E-3,9.269913E-3,1.1880151E-2,1.205515E-2,1.6305974E-2],"categories":[],"categories_nodes":[],"categories_segments":[],"categories_sizes":[],"default_left":[0,0,0,0,0,0,0,0,0,0,0,0,0,0,0,0,0,0,0,0,0,0,0,0,0,0,0,0,0,0,0,0,0,0,0,0,0,0,0,0,0,0,0,0,0,0,0,0,0,0,0,0,0,0,0,0,0,0,0,0,0,0,0,0,0,0,0,0,0,0,0,0,0,0,0,0,0,0,0,0,0,0,0,0,0,0,0,0,0,0,0,0,0,0,0,0,0,0,0,0,0,0,0,0,0,0,0,0,0,0,0,0,0,0,0,0,0,0,0,0,0,0,0,0,0,0,0],"id":9,"left_children":[1,3,5,7,9,11,13,15,17,19,21,23,25,27,29,31,33,35,37,39,41,43,45,47,49,51,53,55,57,59,61,63,65,67,69,71,73,75,77,79,81,83,85,87,89,91,93,95,97,99,101,103,105,107,109,111,113,115,117,119,121,123,125,-1,-1,-1,-1,-1,-1,-1,-1,-1,-1,-1,-1,-1,-1,-1,-1,-1,-1,-1,-1,-1,-1,-1,-1,-1,-1,-1,-1,-1,-1,-1,-1,-1,-1,-1,-1,-1,-1,-1,-1,-1,-1,-1,-1,-1,-1,-1,-1,-1,-1,-1,-1,-1,-1,-1,-1,-1,-1,-1,-1,-1,-1,-1,-1],"loss_changes":[1.0288278E3,1.7963486E2,2.973181E2,1.1703876E2,4.8374645E1,1.725282E2,5.6936584E1,6.060241E1,3.0308807E1,1.6382906E1,9.319305E0,3.6880318E1,2.8810638E1,1.8291534E1,1.1394897E1,8.539139E0,8.891888E0,4.0514526E0,5.080826E0,4.1576405E0,2.8938074E0,2.5635738E0,2.0916862E0,1.3087151E1,8.83375E0,9.078247E0,8.414215E0,4.930359E0,3.4755554E0,3.4883118E0,3.344452E0,2.1572037E0,3.5125122E0,3.185955E0,2.5750453E0,1.2756042E0,1.7428741E0,1.2721176E0,1.2348099E0,6.9860864E-1,9.5282173E-1,2.4854898E-1,7.7698433E-1,9.5262146E-1,2.922001E-1,9.142647E-1,4.6896172E-1,7.5850735E0,5.8587418E0,5.057516E0,3.0158134E0,2.5049133E0,1.80867E0,6.024109E0,1.5095215E0,1.8518562E0,2.3208237E0,1.5853882E0,8.1427765E-1,1.1298904E0,7.8030396E-1,1.4001617E0,1.5849609E0,0E0,0E0,0E0,0E0,0E0,0E0,0E0,0E0,0E0,0E0,0E0,0E0,0E0,0E0,0E0,0E0,0E0,0E0,0E0,0E0,0E0,0E0,0E0,0E0,0E0,0E0,0E0,0E0,0E0,0E0,0E0,0E0,0E0,0E0,0E0,0E0,0E0,0E0,0E0,0E0,0E0,0E0,0E0,0E0,0E0,0E0,0E0,0E0,0E0,0E0,0E0,0E0,0E0,0E0,0E0,0E0,0E0,0E0,0E0,0E0,0E0,0E0,0E0,0E0],"parents":[2147483647,0,0,1,1,2,2,3,3,4,4,5,5,6,6,7,7,8,8,9,9,10,10,11,11,12,12,13,13,14,14,15,15,16,16,17,17,18,18,19,19,20,20,21,21,22,22,23,23,24,24,25,25,26,26,27,27,28,28,29,29,30,30,31,31,32,32,33,33,34,34,35,35,36,36,37,37,38,38,39,39,40,40,41,41,42,42,43,43,44,44,45,45,46,46,47,47,48,48,49,49,50,50,51,51,52,52,53,53,54,54,55,55,56,56,57,57,58,58,59,59,60,60,61,61,62,62],"right_children":[2,4,6,8,10,12,14,16,18,20,22,24,26,28,30,32,34,36,38,40,42,44,46,48,50,52,54,56,58,60,62,64,66,68,70,72,74,76,78,80,82,84,86,88,90,92,94,96,98,100,102,104,106,108,110,112,114,116,118,120,122,124,126,-1,-1,-1,-1,-1,-1,-1,-1,-1,-1,-1,-1,-1,-1,-1,-1,-1,-1,-1,-1,-1,-1,-1,-1,-1,-1,-1,-1,-1,-1,-1,-1,-1,-1,-1,-1,-1,-1,-1,-1,-1,-1,-1,-1,-1,-1,-1,-1,-1,-1,-1,-1,-1,-1,-1,-1,-1,-1,-1,-1,-1,-1,-1,-1],"split_conditions":[1.7630163E-1,1.2264151E-1,2.389937E-1,1.2465999E-1,2.735849E-1,3.0037624E-1,5.188679E-1,9.239856E-2,9.7172216E-2,1.2465999E-1,3.9308175E-1,1.2465999E-1,3.9002386E-1,2.962094E-1,2.7820703E-1,4.7089282E-2,1.3511874E-1,6.4444356E-2,1.3103281E-1,1.0332133E-1,9.874995E-2,1.2465999E-1,5.188679E-1,2.1845543E-1,2.3067276E-1,1.2465999E-1,1.2465999E-1,3.427673E-1,4.298313E-1,7.075472E-1,7.075472E-1,4.4025157E-2,4.7169812E-2,4.4025157E-2,3.1075668E-2,5.6603774E-2,5.345912E-2,5.0314464E-2,5.345912E-2,7.714713E-2,2.0440252E-1,9.073991E-2,1.918239E-1,1.4551559E-1,1.2694688E-1,1.2465999E-1,1.2465999E-1,8.176101E-2,6.918239E-2,9.7484276E-2,6.918239E-2,7.232705E-2,7.232705E-2,4.4791457E-1,8.490566E-2,3.1075668E-2,1.2465999E-1,3.9308175E-1,3.94E2,1.2465999E-1,3.1075668E-2,4.1312352E-1,2.288E3,-2.1121665E-3,-1.552683E-3,-1.3974083E-3,-9.019525E-4,-8.262827E-4,-2.6170386E-4,3.429013E-4,-3.3526385E-4,-3.1102225E-3,-2.620109E-3,-2.6344897E-3,-2.1807624E-3,-2.1687965E-3,-1.6903104E-3,-1.4823215E-3,-1.0305847E-3,2.3180885E-4,8.4422727E-4,1.3450147E-3,2.043883E-3,-1.1659821E-3,-6.4509467E-4,-2.615222E-4,4.1021066E-4,2.6010748E-3,3.731979E-3,1.0619501E-3,1.8581249E-3,4.6225674E-3,3.1853006E-3,6.545992E-3,4.8439237E-3,6.90618E-4,1.8327184E-3,1.6436933E-3,2.6746052E-3,-6.4504705E-4,6.223439E-4,3.7097427E-4,1.362352E-3,2.9629942E-3,3.9527193E-3,1.5943032E-3,2.552478E-3,4.5329533E-3,6.3830563E-3,2.7791269E-3,4.2768917E-3,4.212591E-3,2.8865E-3,5.696264E-3,4.00695E-3,5.9473016E-3,7.832087E-3,8.440884E-3,1.1332436E-2,7.6836185E-3,5.959316E-3,1.0361186E-2,8.38641E-3,9.269913E-3,1.1880151E-2,1.205515E-2,1.6305974E-2],"split_indices":[0,1,1,4,1,0,1,0,0,4,1,4,0,0,0,0,0,0,0,0,0,4,1,0,0,4,4,1,0,1,1,1,1,1,4,1,1,1,1,0,1,0,1,0,0,4,4,1,1,1,1,1,1,0,1,4,4,1,2,4,4,0,3,0,0,0,0,0,0,0,0,0,0,0,0,0,0,0,0,0,0,0,0,0,0,0,0,0,0,0,0,0,0,0,0,0,0,0,0,0,0,0,0,0,0,0,0,0,0,0,0,0,0,0,0,0,0,0,0,0,0,0,0,0,0,0,0],"split_type":[0,0,0,0,0,0,0,0,0,0,0,0,0,0,0,0,0,0,0,0,0,0,0,0,0,0,0,0,0,0,0,0,0,0,0,0,0,0,0,0,0,0,0,0,0,0,0,0,0,0,0,0,0,0,0,0,0,0,0,0,0,0,0,0,0,0,0,0,0,0,0,0,0,0,0,0,0,0,0,0,0,0,0,0,0,0,0,0,0,0,0,0,0,0,0,0,0,0,0,0,0,0,0,0,0,0,0,0,0,0,0,0,0,0,0,0,0,0,0,0,0,0,0,0,0,0,0],"sum_hessian":[4.558508E6,3.168605E6,1.389903E6,2.796164E6,3.72441E5,1.232355E6,1.57548E5,1.701749E6,1.094415E6,2.90864E5,8.1577E4,8.50597E5,3.81758E5,1.11795E5,4.5753E4,8.621E5,8.39649E5,5.70963E5,5.23452E5,1.67601E5,1.23263E5,5.349E4,2.8087E4,5.32654E5,3.17943E5,2.05272E5,1.76486E5,8.0401E4,3.1394E4,2.5557E4,2.0196E4,2.81708E5,5.80392E5,4.66946E5,3.72703E5,2.21642E5,3.49321E5,2.68967E5,2.54485E5,7.4677E4,9.2924E4,4.7001E4,7.6262E4,3.4871E4,1.8619E4,2.0079E4,8.008E3,2.8988E5,2.42774E5,1.80455E5,1.37488E5,1.18531E5,8.6741E4,1.38663E5,3.7823E4,4.2415E4,3.7986E4,2.1803E4,9.591E3,1.7075E4,8.482E3,1.0998E4,9.198E3,1.20285E5,1.61423E5,2.56092E5,3.243E5,1.44943E5,3.22003E5,3.04077E5,6.8626E4,1.33265E5,8.8377E4,1.44272E5,2.05049E5,7.8472E4,1.90495E5,9.9135E4,1.5535E5,3.5564E4,3.9113E4,6.505E4,2.7874E4,3.4526E4,1.2475E4,4.9998E4,2.6264E4,2.4072E4,1.0799E4,8.424E3,1.0195E4,1.347E4,6.609E3,5.728E3,2.28E3,2.09368E5,8.0512E4,1.58139E5,8.4635E4,1.39819E5,4.0636E4,9.1259E4,4.6229E4,8.1177E4,3.7354E4,5.6481E4,3.026E4,1.17969E5,2.0694E4,2.906E4,8.763E3,2.2882E4,1.9533E4,2.6168E4,1.1818E4,1.5516E4,6.287E3,8.48E3,1.111E3,1.1316E4,5.759E3,5.146E3,3.336E3,8.235E3,2.763E3,8.206E3,9.92E2],"tree_param":{"num_deleted":"0","num_feature":"5","num_nodes":"127","size_leaf_vector":"1"}},{"base_weights":[4.7302058E-7,-6.9134985E-3,2.6458032E-2,-9.724332E-3,1.4333257E-2,2.0727288E-2,6.059238E-2,-1.4739323E-2,-2.4036951E-3,9.25845E-3,4.0862937E-2,1.4867334E-2,3.7934516E-2,4.8078116E-2,8.527002E-2,-9.8435255E-3,-2.1379402E-2,2.5244663E-3,-1.036514E-2,1.4913061E-2,7.231644E-4,3.4804016E-2,5.886694E-2,1.9631304E-2,8.11408E-3,3.6590558E-2,6.356782E-2,4.2925127E-2,7.1224675E-2,7.610211E-2,1.0355936E-1,-1.4533009E-2,-6.8384013E-3,-2.4548667E-2,-1.8677652E-2,-7.1400753E-4,5.758726E-3,-1.3552729E-2,-7.2246375E-3,9.896872E-3,2.2294216E-2,-4.7643064E-3,7.117772E-3,3.9728213E-2,2.7436234E-2,5.505101E-2,7.8017384E-2,1.5982604E-2,2.6767371E-2,3.8940415E-3,1.5654076E-2,3.9557315E-2,2.5900863E-2,3.516641E-2,7.0224494E-2,3.5024412E-2,4.8619844E-2,7.610163E-2,5.5347882E-2,7.045597E-2,9.800698E-2,9.791967E-2,1.3162203E-1,-1.9087376E-3,-1.2828879E-3,-1.043007E-3,-4.9820775E-4,-2.6147105E-3,-2.122293E-3,-2.0128668E-3,-1.5314051E-3,1.15905634E-4,-4.1443264E-4,3.5151475E-4,8.9642964E-4,-1.4735122E-3,-9.7313663E-4,-9.806658E-4,-4.7241928E-4,7.1232277E-4,1.8963583E-3,1.7757552E-3,2.773554E-3,-6.943943E-4,5.1534927E-4,3.6466366E-4,1.4007305E-3,3.088543E-3,4.5008757E-3,2.104459E-3,3.2274977E-3,5.9487475E-3,4.5545725E-3,9.035081E-3,6.4199097E-3,1.311583E-3,2.0910206E-3,3.2845505E-3,2.3763222E-3,2.7694143E-5,7.5816346E-4,1.308007E-3,2.014005E-3,3.6503286E-3,4.795811E-3,2.284888E-3,3.367082E-3,2.4060865E-3,4.9355384E-3,6.6821366E-3,1.2232761E-2,3.907313E-3,2.5838434E-3,5.328695E-3,3.8582725E-3,7.3535363E-3,1.0268267E-2,5.453312E-3,8.423346E-3,7.596495E-3,5.8413926E-3,1.0516174E-2,7.753012E-3,1.04399985E-2,8.427367E-3,1.2789491E-2,1.929818E-2],"categories":[],"categories_nodes":[],"categories_segments":[],"categories_sizes":[],"default_left":[0,0,0,0,0,0,0,0,0,0,0,0,0,0,0,0,0,0,0,0,0,0,0,0,0,0,0,0,0,0,0,0,0,0,0,0,0,0,0,0,0,0,0,0,0,0,0,0,0,0,0,0,0,0,0,0,0,0,0,0,0,0,0,0,0,0,0,0,0,0,0,0,0,0,0,0,0,0,0,0,0,0,0,0,0,0,0,0,0,0,0,0,0,0,0,0,0,0,0,0,0,0,0,0,0,0,0,0,0,0,0,0,0,0,0,0,0,0,0,0,0,0,0,0,0,0,0],"id":10,"left_children":[1,3,5,7,9,11,13,15,17,19,21,23,25,27,29,31,33,35,37,39,41,43,45,47,49,51,53,55,57,59,61,63,65,67,69,71,73,75,77,79,81,83,85,87,89,91,93,95,97,99,101,103,105,107,109,111,113,115,117,119,121,123,125,-1,-1,-1,-1,-1,-1,-1,-1,-1,-1,-1,-1,-1,-1,-1,-1,-1,-1,-1,-1,-1,-1,-1,-1,-1,-1,-1,-1,-1,-1,-1,-1,-1,-1,-1,-1,-1,-1,-1,-1,-1,-1,-1,-1,-1,-1,-1,-1,-1,-1,-1,-1,-1,-1,-1,-1,-1,-1,-1,-1,-1,-1,-1,-1],"loss_changes":[8.338738E2,2.158363E2,1.8474554E2,1.17180725E2,5.6849754E1,8.1541046E1,4.1923462E1,6.157718E1,5.0912395E1,1.7107445E1,7.3942337E0,1.9407532E1,7.07489E0,1.0741837E1,7.6516724E0,1.53650055E1,6.8829346E0,8.394884E0,4.9664383E0,7.8938637E0,4.956563E0,1.8395233E0,1.2431984E0,9.209427E0,7.9396267E0,6.189575E0,1.9321709E0,3.3135529E0,1.2658005E0,3.7568665E0,2.4006653E0,3.3046188E0,4.430294E0,1.9660034E0,2.1176758E0,2.57321E0,2.8839903E0,1.1123466E0,1.6134281E0,3.1921797E0,2.1290512E0,1.6433324E0,1.5599875E0,1.4184532E0,6.27985E-1,5.9770584E-1,4.771881E-1,3.3059921E0,2.1843185E0,2.133954E0,1.033659E0,3.9183655E0,1.0049095E0,3.0529857E-1,1.4615746E0,1.1470184E0,2.0037231E0,8.481903E-1,8.620453E-2,1.6009064E0,9.0517044E-1,1.1144409E0,5.582619E-1,0E0,0E0,0E0,0E0,0E0,0E0,0E0,0E0,0E0,0E0,0E0,0E0,0E0,0E0,0E0,0E0,0E0,0E0,0E0,0E0,0E0,0E0,0E0,0E0,0E0,0E0,0E0,0E0,0E0,0E0,0E0,0E0,0E0,0E0,0E0,0E0,0E0,0E0,0E0,0E0,0E0,0E0,0E0,0E0,0E0,0E0,0E0,0E0,0E0,0E0,0E0,0E0,0E0,0E0,0E0,0E0,0E0,0E0,0E0,0E0,0E0,0E0,0E0,0E0],"parents":[2147483647,0,0,1,1,2,2,3,3,4,4,5,5,6,6,7,7,8,8,9,9,10,10,11,11,12,12,13,13,14,14,15,15,16,16,17,17,18,18,19,19,20,20,21,21,22,22,23,23,24,24,25,25,26,26,27,27,28,28,29,29,30,30,31,31,32,32,33,33,34,34,35,35,36,36,37,37,38,38,39,39,40,40,41,41,42,42,43,43,44,44,45,45,46,46,47,47,48,48,49,49,50,50,51,51,52,52,53,53,54,54,55,55,56,56,57,57,58,58,59,59,60,60,61,61,62,62],"right_children":[2,4,6,8,10,12,14,16,18,20,22,24,26,28,30,32,34,36,38,40,42,44,46,48,50,52,54,56,58,60,62,64,66,68,70,72,74,76,78,80,82,84,86,88,90,92,94,96,98,100,102,104,106,108,110,112,114,116,118,120,122,124,126,-1,-1,-1,-1,-1,-1,-1,-1,-1,-1,-1,-1,-1,-1,-1,-1,-1,-1,-1,-1,-1,-1,-1,-1,-1,-1,-1,-1,-1,-1,-1,-1,-1,-1,-1,-1,-1,-1,-1,-1,-1,-1,-1,-1,-1,-1,-1,-1,-1,-1,-1,-1,-1,-1,-1,-1,-1,-1,-1,-1,-1,-1,-1,-1],"split_conditions":[2.1182087E-1,1.3207547E-1,2.0440252E-1,1.150532E-1,3.427673E-1,3.7546018E-1,4.654088E-1,3.1075668E-2,1.2465999E-1,1.2465999E-1,5.188679E-1,1.2465999E-1,4.7392693E-1,3.831061E-1,7.075472E-1,5.805251E-2,7.463894E-2,1.5886565E-1,1.546179E-1,1.4240058E-1,1.2884825E-1,3.1075668E-2,7.075472E-1,2.8884664E-1,2.9240665E-1,1.2465999E-1,3.94E2,2.4515554E-1,1.2465999E-1,3.6769286E-1,4.0195802E-1,3.4265142E-2,4.4025157E-2,5.9748426E-2,6.2893085E-2,1.2968104E-2,5.6603774E-2,7.232705E-2,5.6603774E-2,2.389937E-1,2.0440252E-1,2.389937E-1,2.2012578E-1,1.3722238E-1,1.495206E-1,1.2465999E-1,2.38E2,6.603774E-2,1.2968104E-2,2.5312513E-1,6.918239E-2,7.54717E-2,7.54717E-2,7.232705E-2,4.983E3,1.2465999E-1,1.2465999E-1,3.94E2,2.704E3,1.2465999E-1,1.2465999E-1,1.2465999E-1,2.704E3,-1.9087376E-3,-1.2828879E-3,-1.043007E-3,-4.9820775E-4,-2.6147105E-3,-2.122293E-3,-2.0128668E-3,-1.5314051E-3,1.15905634E-4,-4.1443264E-4,3.5151475E-4,8.9642964E-4,-1.4735122E-3,-9.7313663E-4,-9.806658E-4,-4.7241928E-4,7.1232277E-4,1.8963583E-3,1.7757552E-3,2.773554E-3,-6.943943E-4,5.1534927E-4,3.6466366E-4,1.4007305E-3,3.088543E-3,4.5008757E-3,2.104459E-3,3.2274977E-3,5.9487475E-3,4.5545725E-3,9.035081E-3,6.4199097E-3,1.311583E-3,2.0910206E-3,3.2845505E-3,2.3763222E-3,2.7694143E-5,7.5816346E-4,1.308007E-3,2.014005E-3,3.6503286E-3,4.795811E-3,2.284888E-3,3.367082E-3,2.4060865E-3,4.9355384E-3,6.6821366E-3,1.2232761E-2,3.907313E-3,2.5838434E-3,5.328695E-3,3.8582725E-3,7.3535363E-3,1.0268267E-2,5.453312E-3,8.423346E-3,7.596495E-3,5.8413926E-3,1.0516174E-2,7.753012E-3,1.04399985E-2,8.427367E-3,1.2789491E-2,1.929818E-2],"split_indices":[0,1,1,0,1,0,1,4,4,4,1,4,0,0,1,0,0,0,0,0,0,4,1,0,0,4,2,0,4,0,0,0,1,1,1,4,1,1,1,1,1,1,1,0,0,4,3,1,4,0,1,1,1,1,3,4,4,2,3,4,4,4,3,0,0,0,0,0,0,0,0,0,0,0,0,0,0,0,0,0,0,0,0,0,0,0,0,0,0,0,0,0,0,0,0,0,0,0,0,0,0,0,0,0,0,0,0,0,0,0,0,0,0,0,0,0,0,0,0,0,0,0,0,0,0,0,0],"split_type":[0,0,0,0,0,0,0,0,0,0,0,0,0,0,0,0,0,0,0,0,0,0,0,0,0,0,0,0,0,0,0,0,0,0,0,0,0,0,0,0,0,0,0,0,0,0,0,0,0,0,0,0,0,0,0,0,0,0,0,0,0,0,0,0,0,0,0,0,0,0,0,0,0,0,0,0,0,0,0,0,0,0,0,0,0,0,0,0,0,0,0,0,0,0,0,0,0,0,0,0,0,0,0,0,0,0,0,0,0,0,0,0,0,0,0,0,0,0,0,0,0,0,0,0,0,0,0],"sum_hessian":[4.558508E6,3.614069E6,9.44439E5,3.19181E6,4.22259E5,8.08674E5,1.35765E5,1.894194E6,1.297616E6,3.54457E5,6.7802E4,6.03241E5,2.05433E5,9.0085E4,4.568E4,1.090304E6,8.0389E5,8.01491E5,4.96125E5,2.13207E5,1.4125E5,5.0732E4,1.707E4,3.53716E5,2.49525E5,1.95201E5,1.0232E4,7.3684E4,1.6401E4,3.0431E4,1.5249E4,4.25816E5,6.64488E5,3.69934E5,4.33956E5,4.00485E5,4.01006E5,2.46215E5,2.4991E5,1.26941E5,8.6266E4,7.6017E4,6.5233E4,3.0406E4,2.0326E4,1.4237E4,2.833E3,2.34049E5,1.19667E5,1.59985E5,8.954E4,1.52793E5,4.2408E4,1.944E3,8.288E3,3.0867E4,4.2817E4,1.2544E4,3.857E3,2.4198E4,6.233E3,1.2701E4,2.548E3,1.15943E5,3.09873E5,2.26413E5,4.38075E5,2.49845E5,1.20089E5,3.03168E5,1.30788E5,2.59041E5,1.41444E5,2.35901E5,1.65105E5,1.88032E5,5.8183E4,1.22948E5,1.26962E5,9.7206E4,2.9735E4,4.7046E4,3.922E4,6.2321E4,1.3696E4,4.3379E4,2.1854E4,1.1371E4,1.9035E4,8.76E3,1.1566E4,9.703E3,4.534E3,1.494E3,1.339E3,1.47968E5,8.6081E4,3.9579E4,8.0088E4,8.0765E4,7.922E4,5.6897E4,3.2643E4,1.1206E5,4.0733E4,3.0451E4,1.1957E4,1.092E3,8.52E2,7.782E3,5.06E2,2.1422E4,9.445E3,2.9224E4,1.3593E4,1.1443E4,1.101E3,3.754E3,1.03E2,1.6599E4,7.599E3,4.616E3,1.617E3,8.607E3,4.094E3,2.405E3,1.43E2],"tree_param":{"num_deleted":"0","num_feature":"5","num_nodes":"127","size_leaf_vector":"1"}},{"base_weights":[4.726989E-7,-8.158707E-3,1.8256713E-2,-1.0492615E-2,7.852907E-3,1.3464984E-2,4.7750376E-2,-6.2865485E-3,-1.7048832E-2,3.600914E-3,2.723961E-2,7.6155877E-3,2.9347317E-2,3.7637964E-2,7.171351E-2,-1.1510428E-2,-1.747792E-3,-2.1529289E-2,-1.292084E-2,8.9653535E-3,-3.618257E-3,2.0645997E-2,3.7915364E-2,1.1733785E-2,7.9034007E-4,2.4220824E-2,3.795651E-2,3.0979354E-2,5.4725554E-2,5.9535887E-2,8.652526E-2,-1.6894612E-2,-1.0412615E-2,-4.519794E-3,9.3224284E-4,-2.6257388E-2,-2.0503854E-2,-1.5218831E-2,-9.982116E-3,4.4283457E-3,1.2760311E-2,-9.03479E-3,-5.5472966E-4,2.4776762E-2,1.2832481E-2,3.37568E-2,4.8508726E-2,8.577966E-3,1.8237751E-2,-2.6353383E-3,7.2583E-3,2.839214E-2,1.7179627E-2,4.1223716E-2,2.6419256E-2,3.6509164E-2,2.4487156E-2,4.7947563E-2,6.623443E-2,4.95415E-2,6.916835E-2,7.786381E-2,1.0109923E-1,-2.0284427E-3,-1.4908937E-3,-1.2034045E-3,-7.465728E-4,3.6628108E-4,-5.228974E-4,2.0277644E-4,-4.2135338E-4,-3.0729768E-3,-2.5470764E-3,-2.2640259E-3,-1.8931183E-3,-1.8070278E-3,-1.3972021E-3,-1.2785399E-3,-8.840274E-4,2.8100543E-4,9.236848E-4,1.0603386E-3,1.6527781E-3,-9.801489E-4,-4.663434E-4,-2.5018907E-4,3.9883525E-4,1.7053537E-3,2.7267362E-3,8.3604717E-4,1.5076386E-3,3.7641213E-3,2.5826877E-3,3.908166E-3,5.2745277E-3,6.14586E-4,1.3574056E-3,1.5870512E-3,2.4187935E-3,-5.206842E-4,2.439242E-4,5.0115294E-4,1.2183412E-3,2.4833665E-3,3.2075685E-3,1.5455019E-3,2.3523963E-3,3.9497227E-3,5.8314367E-3,2.513643E-3,4.9010576E-3,3.250471E-3,4.549349E-3,2.0904045E-3,3.212219E-3,5.292067E-3,3.8457327E-3,6.990014E-3,5.204398E-3,5.4079294E-3,4.0417393E-3,7.5514927E-3,6.020769E-3,7.377156E-3,1.0013566E-2,9.670567E-3,1.2791616E-2],"categories":[],"categories_nodes":[],"categories_segments":[],"categories_sizes":[],"default_left":[0,0,0,0,0,0,0,0,0,0,0,0,0,0,0,0,0,0,0,0,0,0,0,0,0,0,0,0,0,0,0,0,0,0,0,0,0,0,0,0,0,0,0,0,0,0,0,0,0,0,0,0,0,0,0,0,0,0,0,0,0,0,0,0,0,0,0,0,0,0,0,0,0,0,0,0,0,0,0,0,0,0,0,0,0,0,0,0,0,0,0,0,0,0,0,0,0,0,0,0,0,0,0,0,0,0,0,0,0,0,0,0,0,0,0,0,0,0,0,0,0,0,0,0,0,0,0],"id":11,"left_children":[1,3,5,7,9,11,13,15,17,19,21,23,25,27,29,31,33,35,37,39,41,43,45,47,49,51,53,55,57,59,61,63,65,67,69,71,73,75,77,79,81,83,85,87,89,91,93,95,97,99,101,103,105,107,109,111,113,115,117,119,121,123,125,-1,-1,-1,-1,-1,-1,-1,-1,-1,-1,-1,-1,-1,-1,-1,-1,-1,-1,-1,-1,-1,-1,-1,-1,-1,-1,-1,-1,-1,-1,-1,-1,-1,-1,-1,-1,-1,-1,-1,-1,-1,-1,-1,-1,-1,-1,-1,-1,-1,-1,-1,-1,-1,-1,-1,-1,-1,-1,-1,-1,-1,-1,-1,-1],"loss_changes":[6.790172E2,1.1773236E2,1.9899014E2,7.582471E1,3.3038944E1,1.125269E2,4.768347E1,3.9715584E1,1.9875061E1,1.2729921E1,5.074047E0,2.48816E1,1.4388092E1,1.5744141E1,1.0528229E1,4.602913E0,6.6587396E0,2.4978485E0,3.7769547E0,3.2468672E0,2.3252864E0,1.4382133E0,1.2109299E0,1.1331856E1,7.38112E0,6.0013657E0,4.5855255E0,3.5743103E0,3.0238037E0,3.0822372E0,3.3179474E0,8.874626E-1,3.090744E0,2.5567646E0,2.5690155E0,3.223114E-1,1.4223633E0,1.1156235E0,7.8551865E-1,6.6836333E-1,8.342762E-1,1.6962147E-1,7.918078E-1,5.603466E-1,1.5456986E-1,6.079731E-1,3.0773735E-1,4.516842E0,2.5401917E0,2.8419023E0,1.2763004E0,1.6812363E0,8.314514E-1,2.7956085E0,7.770786E-1,1.933281E0,1.2525597E0,1.1507225E0,7.4438095E-1,6.4925003E-1,9.2350006E-1,1.4991913E0,1.1444092E0,0E0,0E0,0E0,0E0,0E0,0E0,0E0,0E0,0E0,0E0,0E0,0E0,0E0,0E0,0E0,0E0,0E0,0E0,0E0,0E0,0E0,0E0,0E0,0E0,0E0,0E0,0E0,0E0,0E0,0E0,0E0,0E0,0E0,0E0,0E0,0E0,0E0,0E0,0E0,0E0,0E0,0E0,0E0,0E0,0E0,0E0,0E0,0E0,0E0,0E0,0E0,0E0,0E0,0E0,0E0,0E0,0E0,0E0,0E0,0E0,0E0,0E0,0E0,0E0],"parents":[2147483647,0,0,1,1,2,2,3,3,4,4,5,5,6,6,7,7,8,8,9,9,10,10,11,11,12,12,13,13,14,14,15,15,16,16,17,17,18,18,19,19,20,20,21,21,22,22,23,23,24,24,25,25,26,26,27,27,28,28,29,29,30,30,31,31,32,32,33,33,34,34,35,35,36,36,37,37,38,38,39,39,40,40,41,41,42,42,43,43,44,44,45,45,46,46,47,47,48,48,49,49,50,50,51,51,52,52,53,53,54,54,55,55,56,56,57,57,58,58,59,59,60,60,61,61,62,62],"right_children":[2,4,6,8,10,12,14,16,18,20,22,24,26,28,30,32,34,36,38,40,42,44,46,48,50,52,54,56,58,60,62,64,66,68,70,72,74,76,78,80,82,84,86,88,90,92,94,96,98,100,102,104,106,108,110,112,114,116,118,120,122,124,126,-1,-1,-1,-1,-1,-1,-1,-1,-1,-1,-1,-1,-1,-1,-1,-1,-1,-1,-1,-1,-1,-1,-1,-1,-1,-1,-1,-1,-1,-1,-1,-1,-1,-1,-1,-1,-1,-1,-1,-1,-1,-1,-1,-1,-1,-1,-1,-1,-1,-1,-1,-1,-1,-1,-1,-1,-1,-1,-1,-1,-1,-1,-1,-1],"split_conditions":[1.7524981E-1,1.163522E-1,1.981132E-1,1.2465999E-1,2.861635E-1,3.15304E-1,4.654088E-1,8.535944E-2,9.073991E-2,1.2465999E-1,3.9308175E-1,1.2465999E-1,4.075812E-1,2.962094E-1,2.7104655E-1,3.56406E-2,1.23103686E-1,5.1458392E-2,1.3103281E-1,1.0404952E-1,9.640358E-2,1.2465999E-1,5.188679E-1,2.4515554E-1,2.504551E-1,1.2465999E-1,1.2465999E-1,3.1075668E-2,4.075812E-1,5.91195E-1,7.075472E-1,4.0880505E-2,5.345912E-2,0E0,3.1075668E-2,4.4025157E-2,5.345912E-2,5.0314464E-2,5.0314464E-2,1.981132E-1,1.918239E-1,1.981132E-1,1.981132E-1,1.05465434E-1,1.2051459E-1,1.2465999E-1,1.495206E-1,6.918239E-2,7.54717E-2,6.918239E-2,7.232705E-2,5.6603774E-2,8.805031E-2,4.7392693E-1,4.7392693E-1,3.427673E-1,2.3394959E-1,1.2465999E-1,1.2465999E-1,1.2465999E-1,3.1075668E-2,4.7392693E-1,4.7392693E-1,-2.0284427E-3,-1.4908937E-3,-1.2034045E-3,-7.465728E-4,3.6628108E-4,-5.228974E-4,2.0277644E-4,-4.2135338E-4,-3.0729768E-3,-2.5470764E-3,-2.2640259E-3,-1.8931183E-3,-1.8070278E-3,-1.3972021E-3,-1.2785399E-3,-8.840274E-4,2.8100543E-4,9.236848E-4,1.0603386E-3,1.6527781E-3,-9.801489E-4,-4.663434E-4,-2.5018907E-4,3.9883525E-4,1.7053537E-3,2.7267362E-3,8.3604717E-4,1.5076386E-3,3.7641213E-3,2.5826877E-3,3.908166E-3,5.2745277E-3,6.14586E-4,1.3574056E-3,1.5870512E-3,2.4187935E-3,-5.206842E-4,2.439242E-4,5.0115294E-4,1.2183412E-3,2.4833665E-3,3.2075685E-3,1.5455019E-3,2.3523963E-3,3.9497227E-3,5.8314367E-3,2.513643E-3,4.9010576E-3,3.250471E-3,4.549349E-3,2.0904045E-3,3.212219E-3,5.292067E-3,3.8457327E-3,6.990014E-3,5.204398E-3,5.4079294E-3,4.0417393E-3,7.5514927E-3,6.020769E-3,7.377156E-3,1.0013566E-2,9.670567E-3,1.2791616E-2],"split_indices":[0,1,1,4,1,0,1,0,0,4,1,4,0,0,0,0,0,0,0,0,0,4,1,0,0,4,4,4,0,1,1,1,1,4,4,1,1,1,1,1,1,1,1,0,0,4,0,1,1,1,1,1,1,0,0,1,0,4,4,4,4,0,0,0,0,0,0,0,0,0,0,0,0,0,0,0,0,0,0,0,0,0,0,0,0,0,0,0,0,0,0,0,0,0,0,0,0,0,0,0,0,0,0,0,0,0,0,0,0,0,0,0,0,0,0,0,0,0,0,0,0,0,0,0,0,0,0],"split_type":[0,0,0,0,0,0,0,0,0,0,0,0,0,0,0,0,0,0,0,0,0,0,0,0,0,0,0,0,0,0,0,0,0,0,0,0,0,0,0,0,0,0,0,0,0,0,0,0,0,0,0,0,0,0,0,0,0,0,0,0,0,0,0,0,0,0,0,0,0,0,0,0,0,0,0,0,0,0,0,0,0,0,0,0,0,0,0,0,0,0,0,0,0,0,0,0,0,0,0,0,0,0,0,0,0,0,0,0,0,0,0,0,0,0,0,0,0,0,0,0,0,0,0,0,0,0,0],"sum_hessian":[4.558508E6,3.150479E6,1.408029E6,2.749677E6,4.00802E5,1.211244E6,1.96785E5,1.675062E6,1.074615E6,3.28709E5,7.2093E4,8.85222E5,3.26022E5,1.38388E5,5.8397E4,7.78754E5,8.96308E5,5.15306E5,5.59309E5,1.88579E5,1.4013E5,4.4569E4,2.7524E4,5.52098E5,3.33124E5,2.04345E5,1.21677E5,9.9585E4,3.8803E4,3.2051E4,2.6346E4,1.3189E5,6.46864E5,4.40594E5,4.55714E5,9.1837E4,4.23469E5,3.13869E5,2.4544E5,8.5893E4,1.02686E5,5.0623E4,8.9507E4,2.9154E4,1.5415E4,1.9768E4,7.756E3,3.71731E5,1.80367E5,2.1778E5,1.15344E5,1.28322E5,7.6023E4,9.4822E4,2.6855E4,5.3776E4,4.5809E4,2.4424E4,1.4379E4,1.5733E4,1.6318E4,1.6529E4,9.817E3,4.8716E4,8.3174E4,4.17271E5,2.29593E5,3.514E4,4.05454E5,3.75724E5,7.999E4,1.3731E4,7.8106E4,1.79548E5,2.43921E5,9.5484E4,2.18385E5,7.1035E4,1.74405E5,6.4266E4,2.1627E4,6.5303E4,3.7383E4,4.3068E4,7.555E3,6.2654E4,2.6853E4,7.111E3,2.2043E4,5.152E3,1.0263E4,1.3266E4,6.502E3,2.408E3,5.348E3,2.50022E5,1.21709E5,1.29035E5,5.1332E4,1.44537E5,7.3243E4,7.9211E4,3.6133E4,6.5273E4,6.3049E4,5.9777E4,1.6246E4,8.6125E4,8.697E3,2.5414E4,1.441E3,3.72E4,1.6576E4,3.118E4,1.4629E4,1.6023E4,8.401E3,1.1424E4,2.955E3,1.0504E4,5.229E3,9.548E3,6.77E3,1.3967E4,2.562E3,8.439E3,1.378E3],"tree_param":{"num_deleted":"0","num_feature":"5","num_nodes":"127","size_leaf_vector":"1"}},{"base_weights":[4.5544212E-7,-5.553298E-3,2.1771153E-2,-7.956127E-3,1.1064116E-2,1.6819306E-2,4.826639E-2,-1.2631132E-2,-2.7261123E-3,5.901361E-3,2.8143136E-2,1.203027E-2,3.0494913E-2,4.1523743E-2,7.8454345E-2,-8.682144E-3,-1.8088851E-2,2.1765311E-3,-8.109734E-3,1.0521683E-2,-8.172566E-4,2.2848425E-2,4.3632023E-2,1.7558567E-2,8.165513E-3,2.826731E-2,4.030194E-2,3.6255058E-2,5.6486003E-2,7.010657E-2,9.079735E-2,-1.2122805E-2,-6.3152453E-3,-2.0929668E-2,-1.6363794E-2,-5.5055646E-4,5.627349E-3,-1.1401333E-2,-5.287369E-3,5.858538E-3,1.5825532E-2,-4.2012553E-3,6.108529E-3,2.6462667E-2,1.583793E-2,3.836099E-2,5.353827E-2,1.34764435E-2,2.2231854E-2,4.1681672E-3,1.2765215E-2,3.2826517E-2,2.3738496E-2,3.942797E-2,1.0420391E-1,3.0211959E-2,4.549208E-2,5.2754782E-2,7.410553E-2,9.2565976E-2,6.804584E-2,9.882807E-2,7.104652E-2,-1.4448605E-3,-9.702082E-4,-9.250633E-4,-4.731082E-4,-2.4930371E-3,-2.006231E-3,-1.7196706E-3,-1.2634189E-3,-2.7267679E-4,2.4401104E-4,2.7369382E-4,8.041911E-4,-1.2619555E-3,-8.7209063E-4,-6.905247E-4,-2.0871384E-4,1.8758196E-4,8.25891E-4,1.8276433E-3,1.1894641E-3,-8.5275545E-4,-2.0492243E-4,2.5454847E-4,9.601538E-4,1.8362366E-3,2.908755E-3,1.3263896E-3,2.3634497E-3,4.1701323E-3,3.164772E-3,5.8854087E-3,4.391107E-3,1.0746123E-3,1.7331758E-3,1.8653584E-3,2.6234384E-3,1.471331E-4,7.964003E-4,1.0408462E-3,1.672388E-3,2.9225636E-3,3.7779626E-3,2.032865E-3,2.833208E-3,3.3650931E-3,4.6585905E-3,1.015906E-2,1.39657175E-2,3.3560812E-3,2.302721E-3,4.970624E-3,3.5772005E-3,5.7254108E-3,4.189355E-3,6.6032E-3,8.284587E-3,8.409831E-3,1.1297279E-2,5.4370565E-3,7.4002254E-3,9.564E-3,1.3047511E-2,1.0142767E-2,6.8331263E-3],"categories":[],"categories_nodes":[],"categories_segments":[],"categories_sizes":[],"default_left":[0,0,0,0,0,0,0,0,0,0,0,0,0,0,0,0,0,0,0,0,0,0,0,0,0,0,0,0,0,0,0,0,0,0,0,0,0,0,0,0,0,0,0,0,0,0,0,0,0,0,0,0,0,0,0,0,0,0,0,0,0,0,0,0,0,0,0,0,0,0,0,0,0,0,0,0,0,0,0,0,0,0,0,0,0,0,0,0,0,0,0,0,0,0,0,0,0,0,0,0,0,0,0,0,0,0,0,0,0,0,0,0,0,0,0,0,0,0,0,0,0,0,0,0,0,0,0],"id":12,"left_children":[1,3,5,7,9,11,13,15,17,19,21,23,25,27,29,31,33,35,37,39,41,43,45,47,49,51,53,55,57,59,61,63,65,67,69,71,73,75,77,79,81,83,85,87,89,91,93,95,97,99,101,103,105,107,109,111,113,115,117,119,121,123,125,-1,-1,-1,-1,-1,-1,-1,-1,-1,-1,-1,-1,-1,-1,-1,-1,-1,-1,-1,-1,-1,-1,-1,-1,-1,-1,-1,-1,-1,-1,-1,-1,-1,-1,-1,-1,-1,-1,-1,-1,-1,-1,-1,-1,-1,-1,-1,-1,-1,-1,-1,-1,-1,-1,-1,-1,-1,-1,-1,-1,-1,-1,-1,-1],"loss_changes":[5.5116534E2,1.4502078E2,1.21559845E2,7.75847E1,4.045698E1,5.112555E1,2.969339E1,3.6110504E1,3.9529705E1,1.0937006E1,8.733231E0,1.2352699E1,4.4219666E0,9.399475E0,2.7381134E0,7.9164505E0,3.4466095E0,7.3766136E0,6.6314316E0,5.163162E0,3.364737E0,2.0107002E0,1.4146233E0,4.537819E0,6.2565937E0,3.40596E0,2.0887642E0,4.922249E0,2.0378494E0,7.29332E-1,1.6969604E0,2.2304268E0,2.6780643E0,9.216385E-1,1.3592682E0,2.849624E0,2.414835E0,1.0758858E0,1.9897633E0,1.0620337E0,9.407692E-1,8.978987E-1,5.864564E-1,1.1129951E0,5.4159975E-1,3.958645E-1,4.794979E-1,1.3363953E0,1.5879784E0,1.8637316E0,1.475954E0,1.4652939E0,1.2959785E0,1.5272064E0,3.260088E-2,1.282238E0,1.427063E0,1.2502365E0,3.7734795E-1,2.2083855E-1,1.1821289E0,7.57843E-1,2.4953842E-1,0E0,0E0,0E0,0E0,0E0,0E0,0E0,0E0,0E0,0E0,0E0,0E0,0E0,0E0,0E0,0E0,0E0,0E0,0E0,0E0,0E0,0E0,0E0,0E0,0E0,0E0,0E0,0E0,0E0,0E0,0E0,0E0,0E0,0E0,0E0,0E0,0E0,0E0,0E0,0E0,0E0,0E0,0E0,0E0,0E0,0E0,0E0,0E0,0E0,0E0,0E0,0E0,0E0,0E0,0E0,0E0,0E0,0E0,0E0,0E0,0E0,0E0,0E0,0E0],"parents":[2147483647,0,0,1,1,2,2,3,3,4,4,5,5,6,6,7,7,8,8,9,9,10,10,11,11,12,12,13,13,14,14,15,15,16,16,17,17,18,18,19,19,20,20,21,21,22,22,23,23,24,24,25,25,26,26,27,27,28,28,29,29,30,30,31,31,32,32,33,33,34,34,35,35,36,36,37,37,38,38,39,39,40,40,41,41,42,42,43,43,44,44,45,45,46,46,47,47,48,48,49,49,50,50,51,51,52,52,53,53,54,54,55,55,56,56,57,57,58,58,59,59,60,60,61,61,62,62],"right_children":[2,4,6,8,10,12,14,16,18,20,22,24,26,28,30,32,34,36,38,40,42,44,46,48,50,52,54,56,58,60,62,64,66,68,70,72,74,76,78,80,82,84,86,88,90,92,94,96,98,100,102,104,106,108,110,112,114,116,118,120,122,124,126,-1,-1,-1,-1,-1,-1,-1,-1,-1,-1,-1,-1,-1,-1,-1,-1,-1,-1,-1,-1,-1,-1,-1,-1,-1,-1,-1,-1,-1,-1,-1,-1,-1,-1,-1,-1,-1,-1,-1,-1,-1,-1,-1,-1,-1,-1,-1,-1,-1,-1,-1,-1,-1,-1,-1,-1,-1,-1,-1,-1,-1,-1,-1,-1],"split_conditions":[2.1388406E-1,1.2578617E-1,1.855346E-1,1.061127E-1,2.861635E-1,3.7546018E-1,5.91195E-1,3.1075668E-2,3.1075668E-2,1.2465999E-1,4.654088E-1,3.1075668E-2,4.3735588E-1,3.438246E-1,3.0992353E-1,5.5867955E-2,6.650755E-2,1.5781383E-1,1.4652696E-1,1.3192281E-1,1.4652696E-1,1.2465999E-1,5.91195E-1,2.7104655E-1,2.7820703E-1,3.1075668E-2,4.983E3,3.427673E-1,4.7392693E-1,3.99E2,1.2465999E-1,4.7169812E-2,4.4025157E-2,4.5471095E-2,7.54717E-2,5.345912E-2,5.0314464E-2,6.2893085E-2,6.2893085E-2,8.268943E-2,1.2968104E-2,9.073991E-2,1.7295597E-1,1.1659048E-1,3.9308175E-1,1.2465999E-1,3.1075668E-2,5.9748426E-2,5.6603774E-2,6.2893085E-2,6.918239E-2,5.6603774E-2,6.2893085E-2,6.603774E-2,9.1194965E-2,1.2465999E-1,1.2465999E-1,1.2465999E-1,3.9308175E-1,2.3394959E-1,2.4515554E-1,2.521E3,9.64E2,-1.4448605E-3,-9.702082E-4,-9.250633E-4,-4.731082E-4,-2.4930371E-3,-2.006231E-3,-1.7196706E-3,-1.2634189E-3,-2.7267679E-4,2.4401104E-4,2.7369382E-4,8.041911E-4,-1.2619555E-3,-8.7209063E-4,-6.905247E-4,-2.0871384E-4,1.8758196E-4,8.25891E-4,1.8276433E-3,1.1894641E-3,-8.5275545E-4,-2.0492243E-4,2.5454847E-4,9.601538E-4,1.8362366E-3,2.908755E-3,1.3263896E-3,2.3634497E-3,4.1701323E-3,3.164772E-3,5.8854087E-3,4.391107E-3,1.0746123E-3,1.7331758E-3,1.8653584E-3,2.6234384E-3,1.471331E-4,7.964003E-4,1.0408462E-3,1.672388E-3,2.9225636E-3,3.7779626E-3,2.032865E-3,2.833208E-3,3.3650931E-3,4.6585905E-3,1.015906E-2,1.39657175E-2,3.3560812E-3,2.302721E-3,4.970624E-3,3.5772005E-3,5.7254108E-3,4.189355E-3,6.6032E-3,8.284587E-3,8.409831E-3,1.1297279E-2,5.4370565E-3,7.4002254E-3,9.564E-3,1.3047511E-2,1.0142767E-2,6.8331263E-3],"split_indices":[0,1,1,0,1,0,1,4,4,4,1,4,0,0,0,0,0,0,0,0,0,4,1,0,0,4,3,1,0,3,4,1,1,0,1,1,1,1,1,0,4,0,1,0,1,4,4,1,1,1,1,1,1,1,1,4,4,4,1,0,0,3,3,0,0,0,0,0,0,0,0,0,0,0,0,0,0,0,0,0,0,0,0,0,0,0,0,0,0,0,0,0,0,0,0,0,0,0,0,0,0,0,0,0,0,0,0,0,0,0,0,0,0,0,0,0,0,0,0,0,0,0,0,0,0,0,0],"split_type":[0,0,0,0,0,0,0,0,0,0,0,0,0,0,0,0,0,0,0,0,0,0,0,0,0,0,0,0,0,0,0,0,0,0,0,0,0,0,0,0,0,0,0,0,0,0,0,0,0,0,0,0,0,0,0,0,0,0,0,0,0,0,0,0,0,0,0,0,0,0,0,0,0,0,0,0,0,0,0,0,0,0,0,0,0,0,0,0,0,0,0,0,0,0,0,0,0,0,0,0,0,0,0,0,0,0,0,0,0,0,0,0,0,0,0,0,0,0,0,0,0,0,0,0,0,0,0],"sum_hessian":[4.558508E6,3.631982E6,9.26526E5,3.173154E6,4.58828E5,7.80631E5,1.45895E5,